{"hash":"cd1fb36927372d38b937015d23cf28f4","content":"O:24:\"Phpml\\Classification\\SVC\":17:{s:53:\"\u0000Phpml\\SupportVectorMachine\\SupportVectorMachine\u0000type\";i:0;s:55:\"\u0000Phpml\\SupportVectorMachine\\SupportVectorMachine\u0000kernel\";i:2;s:53:\"\u0000Phpml\\SupportVectorMachine\\SupportVectorMachine\u0000cost\";d:10000;s:51:\"\u0000Phpml\\SupportVectorMachine\\SupportVectorMachine\u0000nu\";d:0.5;s:55:\"\u0000Phpml\\SupportVectorMachine\\SupportVectorMachine\u0000degree\";i:3;s:54:\"\u0000Phpml\\SupportVectorMachine\\SupportVectorMachine\u0000gamma\";N;s:54:\"\u0000Phpml\\SupportVectorMachine\\SupportVectorMachine\u0000coef0\";d:0;s:56:\"\u0000Phpml\\SupportVectorMachine\\SupportVectorMachine\u0000epsilon\";d:0.1;s:58:\"\u0000Phpml\\SupportVectorMachine\\SupportVectorMachine\u0000tolerance\";d:0.001;s:58:\"\u0000Phpml\\SupportVectorMachine\\SupportVectorMachine\u0000cacheSize\";i:100;s:58:\"\u0000Phpml\\SupportVectorMachine\\SupportVectorMachine\u0000shrinking\";b:1;s:69:\"\u0000Phpml\\SupportVectorMachine\\SupportVectorMachine\u0000probabilityEstimates\";b:0;s:56:\"\u0000Phpml\\SupportVectorMachine\\SupportVectorMachine\u0000binPath\";s:63:\"C:\\xampp\\htdocs\\php-ml\\chatbot\\vendor\\php-ai\\php-ml\\bin\\libsvm\\\";s:56:\"\u0000Phpml\\SupportVectorMachine\\SupportVectorMachine\u0000varPath\";s:56:\"C:\\xampp\\htdocs\\php-ml\\chatbot\\vendor\\php-ai\\php-ml\\var\\\";s:54:\"\u0000Phpml\\SupportVectorMachine\\SupportVectorMachine\u0000model\";s:257613:\"svm_type c_svc\r\nkernel_type rbf\r\ngamma 0.00273973\r\nnr_class 10\r\ntotal_sv 117\r\nrho 1.06469 0.336126 0.206891 -0.479651 -0.0487476 0.0174042 -0.455351 -0.382606 0.596818 0.522407 0.682644 -0.606551 -0.270732 0.187498 -0.47679 -0.00439146 0.631628 -0.386219 -1.01771 -0.450276 -0.0794974 -1.27967 0.0717653 0.263241 -0.363512 -0.400874 -0.0983466 -0.952368 0.0108417 0.188724 0.263233 0.410649 -0.207839 0.126075 0.749032 0.437158 -0.248915 0.119944 0.677219 -0.357915 -0.30518 0.471764 0.254012 1.16997 0.424082\r\nlabel 0 1 2 3 4 5 6 7 8 9\r\nnr_sv 11 12 18 10 14 9 11 8 8 16\r\nSV\r\n1.761076942018223 9.842507991184643 3.814636517461171 0.7009696941679239 10.10414449695608 4.02505400003418 4.973880815891961 4.217606298632319 1.287490561655488 1:0 2:0 3:1 4:0 5:0 6:0 7:0 8:0 9:0 10:0 11:0 12:0 13:0 14:0 15:0 16:0 17:0 18:0 19:0 20:0 21:0 22:0 23:0 24:0 25:0 26:0 27:0 28:0 29:0 30:0 31:0 32:0 33:0 34:0 35:0 36:0 37:0 38:0 39:0 40:0 41:0 42:0 43:0 44:0 45:0 46:0 47:1 48:1 49:0 50:0 51:0 52:0 53:0 54:0 55:0 56:0 57:0 58:0 59:0 60:0 61:0 62:0 63:0 64:0 65:0 66:0 67:0 68:0 69:0 70:0 71:0 72:0 73:0 74:0 75:0 76:0 77:0 78:0 79:0 80:0 81:0 82:0 83:0 84:0 85:0 86:0 87:0 88:0 89:0 90:0 91:0 92:0 93:0 94:0 95:0 96:0 97:0 98:0 99:0 100:0 101:0 102:0 103:0 104:0 105:0 106:0 107:0 108:0 109:0 110:0 111:0 112:0 113:0 114:0 115:0 116:0 117:0 118:0 119:0 120:0 121:0 122:0 123:0 124:0 125:0 126:0 127:0 128:0 129:0 130:0 131:0 132:0 133:0 134:0 135:0 136:0 137:0 138:0 139:0 140:0 141:0 142:0 143:0 144:0 145:0 146:0 147:0 148:0 149:0 150:0 151:0 152:0 153:0 154:0 155:0 156:0 157:0 158:0 159:0 160:0 161:0 162:0 163:0 164:0 165:0 166:0 167:0 168:0 169:0 170:0 171:0 172:0 173:0 174:0 175:0 176:0 177:0 178:0 179:0 180:0 181:0 182:0 183:0 184:0 185:0 186:0 187:0 188:0 189:0 190:0 191:0 192:0 193:0 194:0 195:0 196:0 197:0 198:0 199:0 200:0 201:0 202:0 203:0 204:0 205:0 206:0 207:0 208:0 209:0 210:0 211:0 212:0 213:0 214:0 215:0 216:0 217:0 218:0 219:0 220:0 221:0 222:0 223:0 224:0 225:0 226:0 227:0 228:0 229:0 230:0 231:0 232:0 233:0 234:0 235:0 236:0 237:0 238:0 239:0 240:0 241:0 242:0 243:0 244:0 245:0 246:0 247:0 248:0 249:0 250:0 251:0 252:0 253:0 254:0 255:0 256:0 257:0 258:0 259:0 260:0 261:0 262:0 263:0 264:0 265:0 266:0 267:0 268:0 269:0 270:0 271:0 272:0 273:0 274:0 275:0 276:0 277:0 278:0 279:0 280:0 281:0 282:0 283:0 284:0 285:0 286:0 287:0 288:0 289:0 290:0 291:0 292:0 293:0 294:0 295:0 296:0 297:0 298:0 299:0 300:0 301:0 302:0 303:0 304:0 305:0 306:0 307:0 308:0 309:0 310:0 311:0 312:0 313:0 314:0 315:0 316:0 317:0 318:0 319:0 320:0 321:0 322:0 323:0 324:0 325:0 326:0 327:0 328:0 329:0 330:0 331:0 332:0 333:0 334:0 335:0 336:0 337:0 338:0 339:0 340:0 341:0 342:0 343:0 344:0 345:0 346:0 347:0 348:0 349:0 350:0 351:0 352:0 353:0 354:0 355:0 356:0 357:0 358:0 359:0 360:0 361:0 362:0 363:0 364:0 365:0 \r\n1.090130977453333 0.6689794701749383 0.6014116748509899 0.258618185972453 0.4901077321902342 0.5129637887725901 0.4044638348955988 0.3640765336095626 0.8185686402815016 1:0 2:0 3:0 4:1 5:0 6:0 7:0 8:0 9:0 10:0 11:0 12:0 13:0 14:0 15:0 16:0 17:0 18:0 19:0 20:0 21:0 22:0 23:0 24:0 25:0 26:0 27:0 28:0 29:0 30:0 31:0 32:0 33:0 34:0 35:0 36:0 37:0 38:0 39:0 40:0 41:0 42:0 43:0 44:1 45:0 46:0 47:0 48:0 49:0 50:0 51:0 52:0 53:0 54:0 55:0 56:0 57:0 58:0 59:0 60:0 61:0 62:0 63:0 64:0 65:0 66:0 67:0 68:0 69:0 70:0 71:0 72:0 73:0 74:0 75:0 76:0 77:0 78:0 79:0 80:0 81:0 82:0 83:0 84:0 85:0 86:0 87:0 88:0 89:0 90:0 91:0 92:0 93:0 94:0 95:0 96:0 97:0 98:0 99:0 100:0 101:0 102:0 103:0 104:0 105:0 106:0 107:0 108:0 109:0 110:0 111:0 112:0 113:0 114:0 115:0 116:0 117:0 118:0 119:0 120:0 121:0 122:0 123:0 124:0 125:0 126:0 127:0 128:0 129:0 130:0 131:0 132:0 133:0 134:0 135:0 136:0 137:0 138:0 139:0 140:0 141:0 142:0 143:0 144:0 145:0 146:0 147:0 148:0 149:0 150:0 151:0 152:0 153:0 154:0 155:0 156:0 157:0 158:0 159:0 160:0 161:0 162:0 163:0 164:0 165:0 166:0 167:0 168:0 169:0 170:0 171:0 172:0 173:0 174:0 175:0 176:0 177:0 178:0 179:0 180:0 181:0 182:0 183:0 184:0 185:0 186:0 187:0 188:0 189:0 190:0 191:0 192:0 193:0 194:0 195:0 196:0 197:0 198:0 199:0 200:0 201:0 202:0 203:0 204:0 205:0 206:0 207:0 208:0 209:0 210:0 211:0 212:0 213:0 214:0 215:0 216:0 217:0 218:0 219:0 220:0 221:0 222:0 223:0 224:0 225:0 226:0 227:0 228:0 229:0 230:0 231:0 232:0 233:0 234:0 235:0 236:0 237:0 238:0 239:0 240:0 241:0 242:0 243:0 244:0 245:0 246:0 247:0 248:0 249:0 250:0 251:0 252:0 253:0 254:0 255:0 256:0 257:0 258:0 259:0 260:0 261:0 262:0 263:0 264:0 265:0 266:0 267:0 268:0 269:0 270:0 271:0 272:0 273:0 274:0 275:0 276:0 277:0 278:0 279:0 280:0 281:0 282:0 283:0 284:0 285:0 286:0 287:0 288:0 289:0 290:0 291:0 292:0 293:0 294:0 295:0 296:0 297:0 298:0 299:0 300:0 301:0 302:0 303:0 304:0 305:0 306:0 307:0 308:0 309:0 310:0 311:0 312:0 313:0 314:0 315:0 316:0 317:0 318:0 319:0 320:0 321:0 322:0 323:0 324:0 325:0 326:0 327:0 328:0 329:0 330:0 331:0 332:0 333:0 334:0 335:0 336:0 337:0 338:0 339:0 340:0 341:0 342:0 343:0 344:0 345:0 346:0 347:0 348:0 349:0 350:0 351:0 352:0 353:0 354:0 355:0 356:0 357:0 358:0 359:0 360:0 361:0 362:0 363:0 364:0 365:0 \r\n1.777276601209444 11.78200011218376 34.9360722245023 9.14848687682203 10.10002479503386 17.54500596192537 4.912419828199588 4.207846126950211 35.66306000681491 1:1 2:1 3:1 4:0 5:0 6:0 7:0 8:0 9:0 10:0 11:0 12:0 13:0 14:0 15:0 16:0 17:0 18:0 19:0 20:0 21:0 22:0 23:0 24:0 25:0 26:0 27:0 28:0 29:0 30:0 31:0 32:0 33:0 34:0 35:0 36:0 37:0 38:0 39:0 40:0 41:0 42:0 43:0 44:0 45:0 46:0 47:0 48:0 49:0 50:0 51:0 52:0 53:0 54:0 55:0 56:0 57:0 58:0 59:0 60:0 61:0 62:0 63:0 64:0 65:0 66:0 67:0 68:0 69:0 70:0 71:0 72:0 73:0 74:0 75:0 76:0 77:0 78:0 79:0 80:0 81:0 82:0 83:0 84:0 85:0 86:0 87:0 88:0 89:0 90:0 91:0 92:0 93:0 94:0 95:0 96:0 97:0 98:0 99:0 100:0 101:0 102:0 103:0 104:0 105:0 106:0 107:0 108:0 109:0 110:0 111:0 112:0 113:0 114:0 115:0 116:0 117:0 118:0 119:0 120:0 121:0 122:0 123:0 124:0 125:0 126:0 127:0 128:0 129:0 130:0 131:0 132:0 133:0 134:0 135:0 136:0 137:0 138:0 139:0 140:0 141:0 142:0 143:0 144:0 145:0 146:0 147:0 148:0 149:0 150:0 151:0 152:0 153:0 154:0 155:0 156:0 157:0 158:0 159:0 160:0 161:0 162:0 163:0 164:0 165:0 166:0 167:0 168:0 169:0 170:0 171:0 172:0 173:0 174:0 175:0 176:0 177:0 178:0 179:0 180:0 181:0 182:0 183:0 184:0 185:0 186:0 187:0 188:0 189:0 190:0 191:0 192:0 193:0 194:0 195:0 196:0 197:0 198:0 199:0 200:0 201:0 202:0 203:0 204:0 205:0 206:0 207:0 208:0 209:0 210:0 211:0 212:0 213:0 214:0 215:0 216:0 217:0 218:0 219:0 220:0 221:0 222:0 223:0 224:0 225:0 226:0 227:0 228:0 229:0 230:0 231:0 232:0 233:0 234:0 235:0 236:0 237:0 238:0 239:0 240:0 241:0 242:0 243:0 244:0 245:0 246:0 247:0 248:0 249:0 250:0 251:0 252:0 253:0 254:0 255:0 256:0 257:0 258:0 259:0 260:0 261:0 262:0 263:0 264:0 265:0 266:0 267:0 268:0 269:0 270:0 271:0 272:0 273:0 274:0 275:0 276:0 277:0 278:0 279:0 280:0 281:0 282:0 283:0 284:0 285:0 286:0 287:0 288:0 289:0 290:0 291:0 292:0 293:0 294:0 295:0 296:0 297:0 298:0 299:0 300:0 301:0 302:0 303:0 304:0 305:0 306:0 307:0 308:0 309:0 310:0 311:0 312:0 313:0 314:0 315:0 316:0 317:0 318:0 319:0 320:0 321:0 322:0 323:0 324:0 325:0 326:0 327:0 328:0 329:0 330:0 331:0 332:0 333:0 334:0 335:0 336:0 337:0 338:0 339:0 340:0 341:0 342:0 343:0 344:0 345:0 346:0 347:0 348:0 349:0 350:0 351:0 352:0 353:0 354:0 355:0 356:0 357:0 358:0 359:0 360:0 361:0 362:0 363:0 364:0 365:0 \r\n2.505060881805277 18.9918284501302 7.050979254930234 1.13503027535101 19.74554095334323 7.544274195908709 9.596565835884718 8.128552181009303 1.799761400756528 1:0 2:0 3:1 4:0 5:0 6:0 7:0 8:0 9:0 10:0 11:0 12:0 13:0 14:0 15:0 16:0 17:0 18:0 19:0 20:0 21:0 22:0 23:0 24:0 25:0 26:0 27:0 28:0 29:0 30:0 31:0 32:0 33:0 34:0 35:0 36:0 37:0 38:1 39:0 40:0 41:0 42:0 43:0 44:0 45:0 46:0 47:0 48:0 49:0 50:0 51:0 52:0 53:0 54:0 55:0 56:0 57:0 58:0 59:0 60:0 61:0 62:0 63:0 64:0 65:0 66:0 67:0 68:0 69:0 70:0 71:0 72:0 73:0 74:0 75:0 76:0 77:0 78:0 79:0 80:0 81:0 82:0 83:0 84:0 85:0 86:0 87:0 88:0 89:0 90:0 91:0 92:0 93:0 94:0 95:0 96:0 97:0 98:0 99:0 100:0 101:0 102:0 103:0 104:0 105:0 106:0 107:0 108:0 109:0 110:0 111:0 112:0 113:0 114:0 115:0 116:0 117:0 118:0 119:0 120:0 121:0 122:0 123:0 124:0 125:0 126:0 127:0 128:0 129:0 130:0 131:0 132:0 133:0 134:0 135:0 136:0 137:0 138:0 139:0 140:0 141:0 142:0 143:0 144:0 145:0 146:0 147:0 148:0 149:0 150:0 151:0 152:0 153:0 154:0 155:0 156:0 157:0 158:0 159:0 160:0 161:0 162:0 163:0 164:0 165:0 166:0 167:0 168:0 169:0 170:0 171:0 172:0 173:0 174:0 175:0 176:0 177:0 178:0 179:0 180:0 181:0 182:0 183:0 184:0 185:0 186:0 187:0 188:0 189:0 190:0 191:0 192:0 193:0 194:0 195:0 196:0 197:0 198:0 199:0 200:0 201:0 202:0 203:0 204:0 205:0 206:0 207:0 208:0 209:0 210:0 211:0 212:0 213:0 214:0 215:0 216:0 217:0 218:0 219:0 220:0 221:0 222:0 223:0 224:0 225:0 226:0 227:0 228:0 229:0 230:0 231:0 232:0 233:0 234:0 235:0 236:0 237:0 238:0 239:0 240:0 241:0 242:0 243:0 244:0 245:0 246:0 247:0 248:0 249:0 250:0 251:0 252:0 253:0 254:0 255:0 256:0 257:0 258:0 259:0 260:0 261:0 262:0 263:0 264:0 265:0 266:0 267:0 268:0 269:0 270:0 271:0 272:0 273:0 274:0 275:0 276:0 277:0 278:0 279:0 280:0 281:0 282:0 283:0 284:0 285:0 286:0 287:0 288:0 289:0 290:0 291:0 292:0 293:0 294:0 295:0 296:0 297:0 298:0 299:0 300:0 301:0 302:0 303:0 304:0 305:0 306:0 307:0 308:0 309:0 310:0 311:0 312:0 313:0 314:0 315:0 316:0 317:0 318:0 319:0 320:0 321:0 322:0 323:0 324:0 325:0 326:0 327:0 328:0 329:0 330:0 331:0 332:0 333:0 334:0 335:0 336:0 337:0 338:0 339:0 340:0 341:0 342:0 343:0 344:0 345:0 346:0 347:0 348:0 349:0 350:0 351:0 352:0 353:0 354:0 355:0 356:0 357:0 358:0 359:0 360:0 361:0 362:0 363:0 364:0 365:0 \r\n2.520604769535064 18.97018011704223 7.017658761738697 1.139672755798456 19.71616004780192 7.522408646153975 9.627365603319932 8.106204044914046 1.785287990612365 1:0 2:0 3:1 4:0 5:0 6:0 7:0 8:0 9:0 10:0 11:0 12:0 13:0 14:0 15:0 16:0 17:0 18:0 19:0 20:0 21:0 22:0 23:0 24:0 25:0 26:0 27:0 28:0 29:0 30:0 31:0 32:0 33:0 34:0 35:0 36:0 37:0 38:0 39:0 40:1 41:0 42:0 43:0 44:0 45:0 46:0 47:0 48:0 49:0 50:0 51:0 52:0 53:0 54:0 55:0 56:0 57:0 58:0 59:0 60:0 61:0 62:0 63:0 64:0 65:0 66:0 67:0 68:0 69:0 70:0 71:0 72:0 73:0 74:0 75:0 76:0 77:0 78:0 79:0 80:0 81:0 82:0 83:0 84:0 85:0 86:0 87:0 88:0 89:0 90:0 91:0 92:0 93:0 94:0 95:0 96:0 97:0 98:0 99:0 100:0 101:0 102:0 103:0 104:0 105:0 106:0 107:0 108:0 109:0 110:0 111:0 112:0 113:0 114:0 115:0 116:0 117:0 118:0 119:0 120:0 121:0 122:0 123:0 124:0 125:0 126:0 127:0 128:0 129:0 130:0 131:0 132:0 133:0 134:0 135:0 136:0 137:0 138:0 139:0 140:0 141:0 142:0 143:0 144:0 145:0 146:0 147:0 148:0 149:0 150:0 151:0 152:0 153:0 154:0 155:0 156:0 157:0 158:0 159:0 160:0 161:0 162:0 163:0 164:0 165:0 166:0 167:0 168:0 169:0 170:0 171:0 172:0 173:0 174:0 175:0 176:0 177:0 178:0 179:0 180:0 181:0 182:0 183:0 184:0 185:0 186:0 187:0 188:0 189:0 190:0 191:0 192:0 193:0 194:0 195:0 196:0 197:0 198:0 199:0 200:0 201:0 202:0 203:0 204:0 205:0 206:0 207:0 208:0 209:0 210:0 211:0 212:0 213:0 214:0 215:0 216:0 217:0 218:0 219:0 220:0 221:0 222:0 223:0 224:0 225:0 226:0 227:0 228:0 229:0 230:0 231:0 232:0 233:0 234:0 235:0 236:0 237:0 238:0 239:0 240:0 241:0 242:0 243:0 244:0 245:0 246:0 247:0 248:0 249:0 250:0 251:0 252:0 253:0 254:0 255:0 256:0 257:0 258:0 259:0 260:0 261:0 262:0 263:0 264:0 265:0 266:0 267:0 268:0 269:0 270:0 271:0 272:0 273:0 274:0 275:0 276:0 277:0 278:0 279:0 280:0 281:0 282:0 283:0 284:0 285:0 286:0 287:0 288:0 289:0 290:0 291:0 292:0 293:0 294:0 295:0 296:0 297:0 298:0 299:0 300:0 301:0 302:0 303:0 304:0 305:0 306:0 307:0 308:0 309:0 310:0 311:0 312:0 313:0 314:0 315:0 316:0 317:0 318:0 319:0 320:0 321:0 322:0 323:0 324:0 325:0 326:0 327:0 328:0 329:0 330:0 331:0 332:0 333:0 334:0 335:0 336:0 337:0 338:0 339:0 340:0 341:0 342:0 343:0 344:0 345:0 346:0 347:0 348:0 349:0 350:0 351:0 352:0 353:0 354:0 355:0 356:0 357:0 358:0 359:0 360:0 361:0 362:0 363:0 364:0 365:0 \r\n2.533651963165784 18.96624664788019 7.036650976050435 1.119140188261353 19.7340371520976 7.53054614911772 9.553621224145603 8.12855218100918 1.785838901068441 1:0 2:0 3:1 4:0 5:0 6:0 7:0 8:0 9:0 10:0 11:0 12:0 13:0 14:0 15:0 16:0 17:0 18:0 19:0 20:0 21:0 22:0 23:0 24:0 25:0 26:0 27:0 28:0 29:0 30:0 31:0 32:0 33:0 34:0 35:0 36:0 37:0 38:0 39:0 40:0 41:0 42:0 43:0 44:0 45:1 46:0 47:0 48:0 49:0 50:0 51:0 52:0 53:0 54:0 55:0 56:0 57:0 58:0 59:0 60:0 61:0 62:0 63:0 64:0 65:0 66:0 67:0 68:0 69:0 70:0 71:0 72:0 73:0 74:0 75:0 76:0 77:0 78:0 79:0 80:0 81:0 82:0 83:0 84:0 85:0 86:0 87:0 88:0 89:0 90:0 91:0 92:0 93:0 94:0 95:0 96:0 97:0 98:0 99:0 100:0 101:0 102:0 103:0 104:0 105:0 106:0 107:0 108:0 109:0 110:0 111:0 112:0 113:0 114:0 115:0 116:0 117:0 118:0 119:0 120:0 121:0 122:0 123:0 124:0 125:0 126:0 127:0 128:0 129:0 130:0 131:0 132:0 133:0 134:0 135:0 136:0 137:0 138:0 139:0 140:0 141:0 142:0 143:0 144:0 145:0 146:0 147:0 148:0 149:0 150:0 151:0 152:0 153:0 154:0 155:0 156:0 157:0 158:0 159:0 160:0 161:0 162:0 163:0 164:0 165:0 166:0 167:0 168:0 169:0 170:0 171:0 172:0 173:0 174:0 175:0 176:0 177:0 178:0 179:0 180:0 181:0 182:0 183:0 184:0 185:0 186:0 187:0 188:0 189:0 190:0 191:0 192:0 193:0 194:0 195:0 196:0 197:0 198:0 199:0 200:0 201:0 202:0 203:0 204:0 205:0 206:0 207:0 208:0 209:0 210:0 211:0 212:0 213:0 214:0 215:0 216:0 217:0 218:0 219:0 220:0 221:0 222:0 223:0 224:0 225:0 226:0 227:0 228:0 229:0 230:0 231:0 232:0 233:0 234:0 235:0 236:0 237:0 238:0 239:0 240:0 241:0 242:0 243:0 244:0 245:0 246:0 247:0 248:0 249:0 250:0 251:0 252:0 253:0 254:0 255:0 256:0 257:0 258:0 259:0 260:0 261:0 262:0 263:0 264:0 265:0 266:0 267:0 268:0 269:0 270:0 271:0 272:0 273:0 274:0 275:0 276:0 277:0 278:0 279:0 280:0 281:0 282:0 283:0 284:0 285:0 286:0 287:0 288:0 289:0 290:0 291:0 292:0 293:0 294:0 295:0 296:0 297:0 298:0 299:0 300:0 301:0 302:0 303:0 304:0 305:0 306:0 307:0 308:0 309:0 310:0 311:0 312:0 313:0 314:0 315:0 316:0 317:0 318:0 319:0 320:0 321:0 322:0 323:0 324:0 325:0 326:0 327:0 328:0 329:0 330:0 331:0 332:0 333:0 334:0 335:0 336:0 337:0 338:0 339:0 340:0 341:0 342:0 343:0 344:0 345:0 346:0 347:0 348:0 349:0 350:0 351:0 352:0 353:0 354:0 355:0 356:0 357:0 358:0 359:0 360:0 361:0 362:0 363:0 364:0 365:0 \r\n1.501966983512275 3.645743999309793 1.126712932792761 3.162940257228844 0.8163581543318963 4.509537393864193 0.4484951176816463 3.95292738793195 4.110805942670689 1:0 2:0 3:1 4:0 5:0 6:0 7:0 8:0 9:0 10:0 11:0 12:0 13:1 14:0 15:0 16:0 17:0 18:0 19:0 20:0 21:1 22:0 23:0 24:0 25:0 26:0 27:0 28:0 29:0 30:0 31:0 32:1 33:0 34:0 35:0 36:0 37:1 38:0 39:0 40:0 41:0 42:0 43:0 44:0 45:0 46:0 47:0 48:0 49:0 50:0 51:1 52:0 53:0 54:0 55:0 56:0 57:1 58:0 59:0 60:0 61:0 62:0 63:1 64:0 65:0 66:0 67:0 68:0 69:0 70:0 71:0 72:0 73:0 74:0 75:0 76:0 77:0 78:0 79:0 80:0 81:0 82:0 83:0 84:0 85:0 86:0 87:0 88:0 89:0 90:0 91:0 92:0 93:0 94:0 95:0 96:0 97:0 98:0 99:0 100:0 101:0 102:0 103:0 104:0 105:0 106:0 107:0 108:0 109:0 110:0 111:0 112:0 113:0 114:0 115:0 116:0 117:0 118:0 119:0 120:0 121:0 122:0 123:0 124:0 125:0 126:0 127:0 128:0 129:0 130:0 131:0 132:1 133:0 134:0 135:0 136:0 137:0 138:0 139:0 140:0 141:0 142:0 143:1 144:0 145:0 146:0 147:0 148:2 149:1 150:1 151:1 152:1 153:1 154:1 155:1 156:1 157:1 158:1 159:1 160:1 161:1 162:1 163:3 164:1 165:2 166:1 167:1 168:1 169:1 170:1 171:1 172:1 173:1 174:1 175:1 176:1 177:1 178:1 179:1 180:1 181:1 182:1 183:1 184:1 185:1 186:1 187:1 188:1 189:0 190:0 191:0 192:0 193:0 194:0 195:0 196:0 197:0 198:0 199:0 200:0 201:0 202:0 203:0 204:0 205:0 206:0 207:0 208:0 209:0 210:0 211:0 212:0 213:0 214:0 215:0 216:0 217:0 218:0 219:0 220:0 221:0 222:0 223:0 224:0 225:0 226:0 227:0 228:0 229:0 230:0 231:0 232:0 233:0 234:0 235:0 236:0 237:0 238:0 239:0 240:0 241:0 242:0 243:0 244:0 245:0 246:0 247:0 248:0 249:0 250:0 251:0 252:0 253:0 254:0 255:0 256:0 257:0 258:0 259:0 260:0 261:0 262:0 263:0 264:0 265:0 266:0 267:0 268:0 269:0 270:0 271:0 272:0 273:0 274:0 275:0 276:0 277:0 278:0 279:0 280:0 281:0 282:0 283:0 284:0 285:0 286:0 287:0 288:0 289:0 290:0 291:0 292:0 293:0 294:0 295:0 296:0 297:0 298:0 299:0 300:0 301:0 302:0 303:0 304:0 305:0 306:0 307:0 308:0 309:0 310:0 311:0 312:0 313:0 314:0 315:0 316:0 317:0 318:0 319:0 320:0 321:0 322:0 323:0 324:0 325:0 326:0 327:0 328:0 329:0 330:0 331:0 332:0 333:0 334:0 335:0 336:0 337:0 338:0 339:0 340:0 341:0 342:0 343:0 344:0 345:0 346:0 347:0 348:0 349:0 350:0 351:0 352:0 353:0 354:0 355:0 356:0 357:0 358:0 359:0 360:0 361:0 362:0 363:0 364:0 365:0 \r\n2.525715160833817 18.96624664788006 7.036650976050449 1.140846119865203 19.74673213396882 7.541040187188862 9.567291741928521 8.072357213979984 1.785115369812512 1:0 2:0 3:1 4:0 5:0 6:0 7:0 8:0 9:0 10:0 11:0 12:0 13:0 14:0 15:0 16:0 17:0 18:0 19:0 20:0 21:0 22:0 23:0 24:0 25:0 26:0 27:0 28:0 29:0 30:0 31:0 32:0 33:0 34:0 35:0 36:0 37:0 38:0 39:0 40:0 41:0 42:1 43:0 44:0 45:0 46:0 47:0 48:0 49:0 50:0 51:0 52:0 53:0 54:0 55:0 56:0 57:0 58:0 59:0 60:0 61:0 62:0 63:0 64:0 65:0 66:0 67:0 68:0 69:0 70:0 71:0 72:0 73:0 74:0 75:0 76:0 77:0 78:0 79:0 80:0 81:0 82:0 83:0 84:0 85:0 86:0 87:0 88:0 89:0 90:0 91:0 92:0 93:0 94:0 95:0 96:0 97:0 98:0 99:0 100:0 101:0 102:0 103:0 104:0 105:0 106:0 107:0 108:0 109:0 110:0 111:0 112:0 113:0 114:0 115:0 116:0 117:0 118:0 119:0 120:0 121:0 122:0 123:0 124:0 125:0 126:0 127:0 128:0 129:0 130:0 131:0 132:0 133:0 134:0 135:0 136:0 137:0 138:0 139:0 140:0 141:0 142:0 143:0 144:0 145:0 146:0 147:0 148:0 149:0 150:0 151:0 152:0 153:0 154:0 155:0 156:0 157:0 158:0 159:0 160:0 161:0 162:0 163:0 164:0 165:0 166:0 167:0 168:0 169:0 170:0 171:0 172:0 173:0 174:0 175:0 176:0 177:0 178:0 179:0 180:0 181:0 182:0 183:0 184:0 185:0 186:0 187:0 188:0 189:0 190:0 191:0 192:0 193:0 194:0 195:0 196:0 197:0 198:0 199:0 200:0 201:0 202:0 203:0 204:0 205:0 206:0 207:0 208:0 209:0 210:0 211:0 212:0 213:0 214:0 215:0 216:0 217:0 218:0 219:0 220:0 221:0 222:0 223:0 224:0 225:0 226:0 227:0 228:0 229:0 230:0 231:0 232:0 233:0 234:0 235:0 236:0 237:0 238:0 239:0 240:0 241:0 242:0 243:0 244:0 245:0 246:0 247:0 248:0 249:0 250:0 251:0 252:0 253:0 254:0 255:0 256:0 257:0 258:0 259:0 260:0 261:0 262:0 263:0 264:0 265:0 266:0 267:0 268:0 269:0 270:0 271:0 272:0 273:0 274:0 275:0 276:0 277:0 278:0 279:0 280:0 281:0 282:0 283:0 284:0 285:0 286:0 287:0 288:0 289:0 290:0 291:0 292:0 293:0 294:0 295:0 296:0 297:0 298:0 299:0 300:0 301:0 302:0 303:0 304:0 305:0 306:0 307:0 308:0 309:0 310:0 311:0 312:0 313:0 314:0 315:0 316:0 317:0 318:0 319:0 320:0 321:0 322:0 323:0 324:0 325:0 326:0 327:0 328:0 329:0 330:0 331:0 332:0 333:0 334:0 335:0 336:0 337:0 338:0 339:0 340:0 341:0 342:0 343:0 344:0 345:0 346:0 347:0 348:0 349:0 350:0 351:0 352:0 353:0 354:0 355:0 356:0 357:0 358:0 359:0 360:0 361:0 362:0 363:0 364:0 365:0 \r\n480.9407205000651 155.8150583336243 88.62500947110007 183.5157322651155 157.6958956469606 98.37653992501477 76.55597289929477 67.67995146515553 125.7749579936323 1:0 2:0 3:0 4:1 5:0 6:0 7:0 8:0 9:0 10:0 11:0 12:0 13:0 14:0 15:0 16:0 17:0 18:0 19:0 20:0 21:0 22:0 23:0 24:0 25:0 26:0 27:0 28:0 29:0 30:0 31:0 32:0 33:0 34:0 35:0 36:0 37:0 38:0 39:0 40:0 41:0 42:0 43:0 44:0 45:0 46:0 47:0 48:0 49:0 50:0 51:0 52:0 53:0 54:0 55:0 56:0 57:0 58:0 59:0 60:0 61:0 62:0 63:0 64:0 65:0 66:0 67:0 68:0 69:0 70:0 71:0 72:0 73:0 74:0 75:0 76:0 77:0 78:0 79:0 80:0 81:0 82:0 83:0 84:0 85:0 86:0 87:0 88:0 89:0 90:0 91:0 92:0 93:0 94:0 95:0 96:0 97:0 98:0 99:0 100:0 101:0 102:0 103:0 104:0 105:0 106:0 107:0 108:0 109:0 110:0 111:0 112:0 113:0 114:0 115:0 116:0 117:0 118:0 119:0 120:0 121:0 122:0 123:0 124:0 125:0 126:0 127:0 128:0 129:0 130:0 131:0 132:0 133:0 134:0 135:0 136:0 137:0 138:0 139:0 140:0 141:0 142:0 143:0 144:0 145:0 146:0 147:0 148:0 149:0 150:0 151:0 152:0 153:0 154:0 155:0 156:0 157:0 158:0 159:0 160:0 161:0 162:0 163:0 164:0 165:0 166:0 167:0 168:0 169:0 170:0 171:0 172:0 173:0 174:0 175:0 176:0 177:0 178:0 179:0 180:0 181:0 182:0 183:0 184:0 185:0 186:0 187:0 188:0 189:0 190:0 191:0 192:0 193:0 194:0 195:0 196:0 197:0 198:0 199:0 200:0 201:0 202:0 203:0 204:0 205:0 206:0 207:0 208:0 209:0 210:0 211:0 212:0 213:0 214:0 215:0 216:0 217:0 218:0 219:0 220:0 221:0 222:0 223:0 224:0 225:0 226:0 227:0 228:0 229:0 230:0 231:0 232:0 233:0 234:0 235:0 236:0 237:0 238:0 239:0 240:0 241:0 242:0 243:0 244:0 245:0 246:0 247:0 248:0 249:0 250:0 251:0 252:0 253:0 254:0 255:0 256:0 257:0 258:0 259:0 260:0 261:0 262:0 263:0 264:0 265:0 266:0 267:0 268:0 269:0 270:0 271:0 272:0 273:0 274:0 275:0 276:0 277:0 278:0 279:0 280:0 281:0 282:0 283:0 284:0 285:0 286:0 287:0 288:0 289:0 290:0 291:0 292:0 293:0 294:0 295:0 296:0 297:0 298:0 299:0 300:0 301:0 302:0 303:0 304:0 305:0 306:0 307:0 308:0 309:0 310:0 311:0 312:0 313:0 314:0 315:0 316:0 317:0 318:0 319:0 320:0 321:0 322:0 323:0 324:0 325:0 326:0 327:0 328:0 329:0 330:0 331:0 332:0 333:0 334:0 335:0 336:0 337:0 338:0 339:0 340:0 341:0 342:0 343:0 344:0 345:0 346:0 347:0 348:0 349:0 350:0 351:0 352:0 353:0 354:0 355:0 356:0 357:0 358:0 359:0 360:0 361:0 362:0 363:0 364:0 365:0 \r\n2.520895245226796 18.98472479641759 7.045644318155609 165.2574996969865 19.7340371520978 7.529126802857988 9.667967859196692 8.155263622186885 1.785996225824952 1:0 2:0 3:1 4:0 5:0 6:0 7:0 8:0 9:0 10:0 11:0 12:0 13:0 14:0 15:0 16:0 17:0 18:0 19:0 20:0 21:0 22:0 23:0 24:0 25:0 26:0 27:0 28:0 29:0 30:0 31:0 32:0 33:0 34:0 35:0 36:0 37:0 38:0 39:0 40:0 41:1 42:0 43:0 44:0 45:0 46:0 47:0 48:0 49:0 50:0 51:0 52:0 53:0 54:0 55:0 56:0 57:0 58:0 59:0 60:0 61:0 62:0 63:0 64:0 65:0 66:0 67:0 68:0 69:0 70:0 71:0 72:0 73:0 74:0 75:0 76:0 77:0 78:0 79:0 80:0 81:0 82:0 83:0 84:0 85:0 86:0 87:0 88:0 89:0 90:0 91:0 92:0 93:0 94:0 95:0 96:0 97:0 98:0 99:0 100:0 101:0 102:0 103:0 104:0 105:0 106:0 107:0 108:0 109:0 110:0 111:0 112:0 113:0 114:0 115:0 116:0 117:0 118:0 119:0 120:0 121:0 122:0 123:0 124:0 125:0 126:0 127:0 128:0 129:0 130:0 131:0 132:0 133:0 134:0 135:0 136:0 137:0 138:0 139:0 140:0 141:0 142:0 143:0 144:0 145:0 146:0 147:0 148:0 149:0 150:0 151:0 152:0 153:0 154:0 155:0 156:0 157:0 158:0 159:0 160:0 161:0 162:0 163:0 164:0 165:0 166:0 167:0 168:0 169:0 170:0 171:0 172:0 173:0 174:0 175:0 176:0 177:0 178:0 179:0 180:0 181:0 182:0 183:0 184:0 185:0 186:0 187:0 188:0 189:0 190:0 191:0 192:0 193:0 194:0 195:0 196:0 197:0 198:0 199:0 200:0 201:0 202:0 203:0 204:0 205:0 206:0 207:0 208:0 209:0 210:0 211:0 212:0 213:0 214:0 215:0 216:0 217:0 218:0 219:0 220:0 221:0 222:0 223:0 224:0 225:0 226:0 227:0 228:0 229:0 230:0 231:0 232:0 233:0 234:0 235:0 236:0 237:0 238:0 239:0 240:0 241:0 242:0 243:0 244:0 245:0 246:0 247:0 248:0 249:0 250:0 251:0 252:0 253:0 254:0 255:0 256:0 257:0 258:0 259:0 260:0 261:0 262:0 263:0 264:0 265:0 266:0 267:0 268:0 269:0 270:0 271:0 272:0 273:0 274:0 275:0 276:0 277:0 278:0 279:0 280:0 281:0 282:0 283:0 284:0 285:0 286:0 287:0 288:0 289:0 290:0 291:0 292:0 293:0 294:0 295:0 296:0 297:0 298:0 299:0 300:0 301:0 302:0 303:0 304:0 305:0 306:0 307:0 308:0 309:0 310:0 311:0 312:0 313:0 314:0 315:0 316:0 317:0 318:0 319:0 320:0 321:0 322:0 323:0 324:0 325:0 326:0 327:0 328:0 329:0 330:0 331:0 332:0 333:0 334:0 335:0 336:0 337:0 338:0 339:0 340:0 341:0 342:0 343:0 344:0 345:0 346:0 347:0 348:0 349:0 350:0 351:0 352:0 353:0 354:0 355:0 356:0 357:0 358:0 359:0 360:0 361:0 362:0 363:0 364:0 365:0 \r\n2.537234551683103 18.99182845013151 7.045644318155765 1.11406487375371 19.74554095334162 7.525714325381725 9.596565835886072 8.095286233663309 1.79030248705384 1:0 2:0 3:1 4:0 5:0 6:0 7:0 8:0 9:0 10:0 11:0 12:0 13:0 14:0 15:0 16:0 17:0 18:0 19:0 20:0 21:0 22:0 23:0 24:0 25:0 26:0 27:0 28:0 29:0 30:0 31:0 32:0 33:0 34:0 35:0 36:0 37:0 38:0 39:0 40:0 41:0 42:0 43:1 44:0 45:0 46:0 47:0 48:0 49:0 50:0 51:0 52:0 53:0 54:0 55:0 56:0 57:0 58:0 59:0 60:0 61:0 62:0 63:0 64:0 65:0 66:0 67:0 68:0 69:0 70:0 71:0 72:0 73:0 74:0 75:0 76:0 77:0 78:0 79:0 80:0 81:0 82:0 83:0 84:0 85:0 86:0 87:0 88:0 89:0 90:0 91:0 92:0 93:0 94:0 95:0 96:0 97:0 98:0 99:0 100:0 101:0 102:0 103:0 104:0 105:0 106:0 107:0 108:0 109:0 110:0 111:0 112:0 113:0 114:0 115:0 116:0 117:0 118:0 119:0 120:0 121:0 122:0 123:0 124:0 125:0 126:0 127:0 128:0 129:0 130:0 131:0 132:0 133:0 134:0 135:0 136:0 137:0 138:0 139:0 140:0 141:0 142:0 143:0 144:0 145:0 146:0 147:0 148:0 149:0 150:0 151:0 152:0 153:0 154:0 155:0 156:0 157:0 158:0 159:0 160:0 161:0 162:0 163:0 164:0 165:0 166:0 167:0 168:0 169:0 170:0 171:0 172:0 173:0 174:0 175:0 176:0 177:0 178:0 179:0 180:0 181:0 182:0 183:0 184:0 185:0 186:0 187:0 188:0 189:0 190:0 191:0 192:0 193:0 194:0 195:0 196:0 197:0 198:0 199:0 200:0 201:0 202:0 203:0 204:0 205:0 206:0 207:0 208:0 209:0 210:0 211:0 212:0 213:0 214:0 215:0 216:0 217:0 218:0 219:0 220:0 221:0 222:0 223:0 224:0 225:0 226:0 227:0 228:0 229:0 230:0 231:0 232:0 233:0 234:0 235:0 236:0 237:0 238:0 239:0 240:0 241:0 242:0 243:0 244:0 245:0 246:0 247:0 248:0 249:0 250:0 251:0 252:0 253:0 254:0 255:0 256:0 257:0 258:0 259:0 260:0 261:0 262:0 263:0 264:0 265:0 266:0 267:0 268:0 269:0 270:0 271:0 272:0 273:0 274:0 275:0 276:0 277:0 278:0 279:0 280:0 281:0 282:0 283:0 284:0 285:0 286:0 287:0 288:0 289:0 290:0 291:0 292:0 293:0 294:0 295:0 296:0 297:0 298:0 299:0 300:0 301:0 302:0 303:0 304:0 305:0 306:0 307:0 308:0 309:0 310:0 311:0 312:0 313:0 314:0 315:0 316:0 317:0 318:0 319:0 320:0 321:0 322:0 323:0 324:0 325:0 326:0 327:0 328:0 329:0 330:0 331:0 332:0 333:0 334:0 335:0 336:0 337:0 338:0 339:0 340:0 341:0 342:0 343:0 344:0 345:0 346:0 347:0 348:0 349:0 350:0 351:0 352:0 353:0 354:0 355:0 356:0 357:0 358:0 359:0 360:0 361:0 362:0 363:0 364:0 365:0 \r\n-74.84341994254446 0 0 0 0 0 0 0 0 1:0 2:0 3:0 4:1 5:1 6:1 7:0 8:0 9:0 10:0 11:0 12:0 13:0 14:0 15:0 16:0 17:0 18:0 19:0 20:0 21:0 22:0 23:0 24:0 25:0 26:0 27:0 28:0 29:0 30:0 31:0 32:0 33:0 34:0 35:0 36:0 37:0 38:0 39:0 40:0 41:0 42:0 43:0 44:0 45:0 46:0 47:0 48:0 49:1 50:0 51:0 52:0 53:0 54:0 55:0 56:0 57:0 58:0 59:0 60:0 61:0 62:0 63:0 64:0 65:0 66:0 67:0 68:0 69:0 70:0 71:0 72:0 73:0 74:0 75:0 76:0 77:0 78:0 79:0 80:0 81:0 82:0 83:0 84:0 85:0 86:0 87:0 88:0 89:0 90:0 91:0 92:0 93:0 94:0 95:0 96:0 97:0 98:0 99:0 100:0 101:0 102:0 103:0 104:0 105:0 106:0 107:0 108:0 109:0 110:0 111:0 112:0 113:0 114:0 115:0 116:0 117:0 118:0 119:0 120:0 121:0 122:0 123:0 124:0 125:0 126:0 127:0 128:0 129:0 130:0 131:0 132:0 133:0 134:0 135:0 136:0 137:0 138:0 139:0 140:0 141:0 142:0 143:0 144:0 145:0 146:0 147:0 148:0 149:0 150:0 151:0 152:0 153:0 154:0 155:0 156:0 157:0 158:0 159:0 160:0 161:0 162:0 163:0 164:0 165:0 166:0 167:0 168:0 169:0 170:0 171:0 172:0 173:0 174:0 175:0 176:0 177:0 178:0 179:0 180:0 181:0 182:0 183:0 184:0 185:0 186:0 187:0 188:0 189:0 190:0 191:0 192:0 193:0 194:0 195:0 196:0 197:0 198:0 199:0 200:0 201:0 202:0 203:0 204:0 205:0 206:0 207:0 208:0 209:0 210:0 211:0 212:0 213:0 214:0 215:0 216:0 217:0 218:0 219:0 220:0 221:0 222:0 223:0 224:0 225:0 226:0 227:0 228:0 229:0 230:0 231:0 232:0 233:0 234:0 235:0 236:0 237:0 238:0 239:0 240:0 241:0 242:0 243:0 244:0 245:0 246:0 247:0 248:0 249:0 250:0 251:0 252:0 253:0 254:0 255:0 256:0 257:0 258:0 259:0 260:0 261:0 262:0 263:0 264:0 265:0 266:0 267:0 268:0 269:0 270:0 271:0 272:0 273:0 274:0 275:0 276:0 277:0 278:0 279:0 280:0 281:0 282:0 283:0 284:0 285:0 286:0 287:0 288:0 289:0 290:0 291:0 292:0 293:0 294:0 295:0 296:0 297:0 298:0 299:0 300:0 301:0 302:0 303:0 304:0 305:0 306:0 307:0 308:0 309:0 310:0 311:0 312:0 313:0 314:0 315:0 316:0 317:0 318:0 319:0 320:0 321:0 322:0 323:0 324:0 325:0 326:0 327:0 328:0 329:0 330:0 331:0 332:0 333:0 334:0 335:0 336:0 337:0 338:0 339:0 340:0 341:0 342:0 343:0 344:0 345:0 346:0 347:0 348:0 349:0 350:0 351:0 352:0 353:0 354:0 355:0 356:0 357:0 358:0 359:0 360:0 361:0 362:0 363:0 364:0 365:0 \r\n-0 0 0.843676081234557 0 0 0.6425080277284991 0 0 0 1:0 2:0 3:1 4:0 5:1 6:0 7:1 8:0 9:0 10:0 11:0 12:0 13:0 14:0 15:0 16:0 17:0 18:0 19:0 20:0 21:0 22:0 23:0 24:0 25:0 26:0 27:0 28:0 29:0 30:0 31:0 32:0 33:0 34:0 35:0 36:0 37:0 38:0 39:0 40:0 41:0 42:0 43:0 44:0 45:0 46:0 47:0 48:0 49:0 50:0 51:0 52:1 53:1 54:0 55:0 56:0 57:0 58:0 59:0 60:0 61:0 62:0 63:0 64:0 65:0 66:0 67:0 68:0 69:0 70:0 71:0 72:0 73:0 74:0 75:0 76:0 77:0 78:0 79:0 80:0 81:0 82:0 83:0 84:0 85:0 86:0 87:0 88:0 89:0 90:0 91:0 92:0 93:0 94:0 95:0 96:0 97:0 98:0 99:0 100:0 101:0 102:0 103:0 104:0 105:0 106:0 107:0 108:0 109:0 110:0 111:0 112:0 113:0 114:0 115:0 116:0 117:0 118:0 119:0 120:0 121:0 122:0 123:0 124:0 125:0 126:0 127:0 128:0 129:0 130:0 131:0 132:0 133:0 134:0 135:0 136:0 137:0 138:0 139:0 140:0 141:0 142:0 143:0 144:0 145:0 146:0 147:0 148:0 149:0 150:0 151:0 152:0 153:0 154:0 155:0 156:0 157:0 158:0 159:0 160:0 161:0 162:0 163:0 164:0 165:0 166:0 167:0 168:0 169:0 170:0 171:0 172:0 173:0 174:0 175:0 176:0 177:0 178:0 179:0 180:0 181:0 182:0 183:0 184:0 185:0 186:0 187:0 188:0 189:0 190:0 191:0 192:0 193:0 194:0 195:0 196:0 197:0 198:0 199:0 200:0 201:0 202:0 203:0 204:0 205:0 206:0 207:0 208:0 209:0 210:0 211:0 212:0 213:0 214:0 215:0 216:0 217:0 218:0 219:0 220:0 221:0 222:0 223:0 224:0 225:0 226:0 227:0 228:0 229:0 230:0 231:0 232:0 233:0 234:0 235:0 236:0 237:0 238:0 239:0 240:0 241:0 242:0 243:0 244:0 245:0 246:0 247:0 248:0 249:0 250:0 251:0 252:0 253:0 254:0 255:0 256:0 257:0 258:0 259:0 260:0 261:0 262:0 263:0 264:0 265:0 266:0 267:0 268:0 269:0 270:0 271:0 272:0 273:0 274:0 275:0 276:0 277:0 278:0 279:0 280:0 281:0 282:0 283:0 284:0 285:0 286:0 287:0 288:0 289:0 290:0 291:0 292:0 293:0 294:0 295:0 296:0 297:0 298:0 299:0 300:0 301:0 302:0 303:0 304:0 305:0 306:0 307:0 308:0 309:0 310:0 311:0 312:0 313:0 314:0 315:0 316:0 317:0 318:0 319:0 320:0 321:0 322:0 323:0 324:0 325:0 326:0 327:0 328:0 329:0 330:0 331:0 332:0 333:0 334:0 335:0 336:0 337:0 338:0 339:0 340:0 341:0 342:0 343:0 344:0 345:0 346:0 347:0 348:0 349:0 350:0 351:0 352:0 353:0 354:0 355:0 356:0 357:0 358:0 359:0 360:0 361:0 362:0 363:0 364:0 365:0 \r\n-16.45459914649679 33.26386930473915 0.2115255707395026 48.06493882390821 43.25559853443072 0 25.83417523709809 23.52553052382624 17.59984463175215 1:0 2:0 3:1 4:0 5:1 6:1 7:0 8:0 9:0 10:0 11:0 12:0 13:0 14:0 15:0 16:0 17:0 18:0 19:0 20:0 21:0 22:0 23:0 24:0 25:0 26:0 27:0 28:0 29:0 30:0 31:0 32:0 33:0 34:0 35:0 36:0 37:0 38:0 39:0 40:0 41:0 42:0 43:0 44:0 45:0 46:0 47:0 48:0 49:1 50:0 51:0 52:0 53:0 54:0 55:0 56:0 57:0 58:0 59:0 60:0 61:0 62:0 63:0 64:0 65:0 66:0 67:0 68:0 69:0 70:0 71:0 72:0 73:0 74:0 75:0 76:0 77:0 78:0 79:0 80:0 81:0 82:0 83:0 84:0 85:0 86:0 87:0 88:0 89:0 90:0 91:0 92:0 93:0 94:0 95:0 96:0 97:0 98:0 99:0 100:0 101:0 102:0 103:0 104:0 105:0 106:0 107:0 108:0 109:0 110:0 111:0 112:0 113:0 114:0 115:0 116:0 117:0 118:0 119:0 120:0 121:0 122:0 123:0 124:0 125:0 126:0 127:0 128:0 129:0 130:0 131:0 132:0 133:0 134:0 135:0 136:0 137:0 138:0 139:0 140:0 141:0 142:0 143:0 144:0 145:0 146:0 147:0 148:0 149:0 150:0 151:0 152:0 153:0 154:0 155:0 156:0 157:0 158:0 159:0 160:0 161:0 162:0 163:0 164:0 165:0 166:0 167:0 168:0 169:0 170:0 171:0 172:0 173:0 174:0 175:0 176:0 177:0 178:0 179:0 180:0 181:0 182:0 183:0 184:0 185:0 186:0 187:0 188:0 189:0 190:0 191:0 192:0 193:0 194:0 195:0 196:0 197:0 198:0 199:0 200:0 201:0 202:0 203:0 204:0 205:0 206:0 207:0 208:0 209:0 210:0 211:0 212:0 213:0 214:0 215:0 216:0 217:0 218:0 219:0 220:0 221:0 222:0 223:0 224:0 225:0 226:0 227:0 228:0 229:0 230:0 231:0 232:0 233:0 234:0 235:0 236:0 237:0 238:0 239:0 240:0 241:0 242:0 243:0 244:0 245:0 246:0 247:0 248:0 249:0 250:0 251:0 252:0 253:0 254:0 255:0 256:0 257:0 258:0 259:0 260:0 261:0 262:0 263:0 264:0 265:0 266:0 267:0 268:0 269:0 270:0 271:0 272:0 273:0 274:0 275:0 276:0 277:0 278:0 279:0 280:0 281:0 282:0 283:0 284:0 285:0 286:0 287:0 288:0 289:0 290:0 291:0 292:0 293:0 294:0 295:0 296:0 297:0 298:0 299:0 300:0 301:0 302:0 303:0 304:0 305:0 306:0 307:0 308:0 309:0 310:0 311:0 312:0 313:0 314:0 315:0 316:0 317:0 318:0 319:0 320:0 321:0 322:0 323:0 324:0 325:0 326:0 327:0 328:0 329:0 330:0 331:0 332:0 333:0 334:0 335:0 336:0 337:0 338:0 339:0 340:0 341:0 342:0 343:0 344:0 345:0 346:0 347:0 348:0 349:0 350:0 351:0 352:0 353:0 354:0 355:0 356:0 357:0 358:0 359:0 360:0 361:0 362:0 363:0 364:0 365:0 \r\n-0 0 80.04649181497042 0 0 45.8288683226962 0 0 0 1:0 2:0 3:1 4:0 5:1 6:0 7:1 8:0 9:0 10:0 11:0 12:0 13:0 14:0 15:0 16:0 17:0 18:0 19:0 20:0 21:0 22:0 23:0 24:0 25:0 26:0 27:0 28:0 29:0 30:0 31:0 32:0 33:0 34:0 35:0 36:0 37:0 38:0 39:0 40:0 41:0 42:0 43:0 44:0 45:0 46:0 47:0 48:0 49:0 50:0 51:0 52:0 53:0 54:0 55:0 56:0 57:0 58:0 59:0 60:0 61:0 62:0 63:0 64:0 65:0 66:0 67:0 68:0 69:0 70:0 71:0 72:0 73:0 74:0 75:0 76:0 77:0 78:0 79:0 80:0 81:0 82:0 83:0 84:0 85:0 86:0 87:0 88:0 89:0 90:0 91:0 92:0 93:0 94:0 95:0 96:0 97:0 98:0 99:0 100:0 101:0 102:0 103:0 104:0 105:0 106:0 107:0 108:0 109:0 110:0 111:0 112:0 113:0 114:0 115:0 116:0 117:0 118:0 119:0 120:0 121:0 122:0 123:0 124:0 125:0 126:0 127:0 128:0 129:0 130:0 131:0 132:0 133:0 134:0 135:0 136:0 137:0 138:0 139:0 140:0 141:0 142:0 143:0 144:0 145:0 146:0 147:0 148:0 149:0 150:0 151:0 152:0 153:0 154:0 155:0 156:0 157:0 158:0 159:0 160:0 161:0 162:0 163:0 164:0 165:0 166:0 167:0 168:0 169:0 170:0 171:0 172:0 173:0 174:0 175:0 176:0 177:0 178:0 179:0 180:0 181:0 182:0 183:0 184:0 185:0 186:0 187:0 188:0 189:0 190:0 191:0 192:0 193:0 194:0 195:0 196:0 197:0 198:0 199:0 200:0 201:0 202:0 203:0 204:0 205:0 206:0 207:0 208:0 209:0 210:0 211:0 212:0 213:0 214:0 215:0 216:0 217:0 218:0 219:0 220:0 221:0 222:0 223:0 224:0 225:0 226:0 227:0 228:0 229:0 230:0 231:0 232:0 233:0 234:0 235:0 236:0 237:0 238:0 239:0 240:0 241:0 242:0 243:0 244:0 245:0 246:0 247:0 248:0 249:0 250:0 251:0 252:0 253:0 254:0 255:0 256:0 257:0 258:0 259:0 260:0 261:0 262:0 263:0 264:0 265:0 266:0 267:0 268:0 269:0 270:0 271:0 272:0 273:0 274:0 275:0 276:0 277:0 278:0 279:0 280:0 281:0 282:0 283:0 284:0 285:0 286:0 287:0 288:0 289:0 290:0 291:0 292:0 293:0 294:0 295:0 296:0 297:0 298:0 299:0 300:0 301:0 302:0 303:0 304:0 305:0 306:0 307:0 308:0 309:0 310:0 311:0 312:0 313:0 314:0 315:0 316:0 317:0 318:0 319:0 320:0 321:0 322:0 323:0 324:0 325:0 326:0 327:0 328:0 329:0 330:0 331:0 332:0 333:0 334:0 335:0 336:0 337:0 338:0 339:0 340:0 341:0 342:0 343:0 344:0 345:0 346:0 347:0 348:0 349:0 350:0 351:0 352:0 353:0 354:0 355:0 356:0 357:0 358:0 359:0 360:0 361:0 362:0 363:0 364:0 365:0 \r\n-364.9233195893834 120.6322641132183 175.3204225181788 132.0154744872526 118.9784087862474 177.7192974260115 71.9776977925265 64.82866390179912 91.53387189773801 1:0 2:0 3:0 4:1 5:0 6:0 7:1 8:0 9:0 10:0 11:0 12:0 13:0 14:0 15:0 16:0 17:0 18:0 19:0 20:0 21:0 22:0 23:0 24:0 25:0 26:0 27:0 28:0 29:0 30:0 31:0 32:0 33:0 34:0 35:0 36:0 37:0 38:0 39:0 40:0 41:0 42:0 43:0 44:0 45:0 46:0 47:0 48:0 49:0 50:0 51:0 52:0 53:0 54:0 55:0 56:0 57:0 58:0 59:0 60:0 61:0 62:0 63:0 64:0 65:0 66:0 67:0 68:0 69:0 70:0 71:0 72:0 73:0 74:0 75:0 76:0 77:0 78:0 79:0 80:0 81:0 82:0 83:0 84:0 85:0 86:0 87:0 88:0 89:0 90:0 91:0 92:0 93:0 94:0 95:0 96:0 97:0 98:0 99:0 100:0 101:0 102:0 103:0 104:0 105:0 106:0 107:0 108:0 109:0 110:0 111:0 112:0 113:0 114:0 115:0 116:0 117:0 118:0 119:0 120:0 121:0 122:0 123:0 124:0 125:0 126:0 127:0 128:0 129:0 130:0 131:0 132:0 133:0 134:0 135:0 136:0 137:0 138:0 139:0 140:0 141:0 142:0 143:0 144:0 145:0 146:0 147:0 148:0 149:0 150:0 151:0 152:0 153:0 154:0 155:0 156:0 157:0 158:0 159:0 160:0 161:0 162:0 163:0 164:0 165:0 166:0 167:0 168:0 169:0 170:0 171:0 172:0 173:0 174:0 175:0 176:0 177:0 178:0 179:0 180:0 181:0 182:0 183:0 184:0 185:0 186:0 187:0 188:0 189:0 190:0 191:0 192:0 193:0 194:0 195:0 196:0 197:0 198:0 199:0 200:0 201:0 202:0 203:0 204:0 205:0 206:0 207:0 208:0 209:0 210:0 211:0 212:0 213:0 214:0 215:0 216:0 217:0 218:0 219:0 220:0 221:0 222:0 223:0 224:0 225:0 226:0 227:0 228:0 229:0 230:0 231:0 232:0 233:0 234:0 235:0 236:0 237:0 238:0 239:0 240:0 241:0 242:0 243:0 244:0 245:0 246:0 247:0 248:0 249:0 250:0 251:0 252:0 253:0 254:0 255:0 256:0 257:0 258:0 259:0 260:0 261:0 262:0 263:0 264:0 265:0 266:0 267:0 268:0 269:0 270:0 271:0 272:0 273:0 274:0 275:0 276:0 277:0 278:0 279:0 280:0 281:0 282:0 283:0 284:0 285:0 286:0 287:0 288:0 289:0 290:0 291:0 292:0 293:0 294:0 295:0 296:0 297:0 298:0 299:0 300:0 301:0 302:0 303:0 304:0 305:0 306:0 307:0 308:0 309:0 310:0 311:0 312:0 313:0 314:0 315:0 316:0 317:0 318:0 319:0 320:0 321:0 322:0 323:0 324:0 325:0 326:0 327:0 328:0 329:0 330:0 331:0 332:0 333:0 334:0 335:0 336:0 337:0 338:0 339:0 340:0 341:0 342:0 343:0 344:0 345:0 346:0 347:0 348:0 349:0 350:0 351:0 352:0 353:0 354:0 355:0 356:0 357:0 358:0 359:0 360:0 361:0 362:0 363:0 364:0 365:0 \r\n-0 0 5.119456347847139 0 0 4.674545745460846 0 0 0 1:0 2:0 3:1 4:0 5:0 6:1 7:2 8:0 9:0 10:0 11:1 12:0 13:0 14:0 15:0 16:0 17:0 18:0 19:0 20:0 21:0 22:0 23:0 24:0 25:0 26:0 27:0 28:0 29:0 30:0 31:0 32:0 33:0 34:0 35:0 36:0 37:0 38:0 39:0 40:0 41:0 42:0 43:0 44:0 45:0 46:0 47:0 48:0 49:0 50:0 51:0 52:0 53:0 54:0 55:0 56:0 57:0 58:0 59:0 60:0 61:0 62:0 63:0 64:0 65:0 66:0 67:0 68:0 69:0 70:0 71:0 72:0 73:0 74:0 75:0 76:0 77:0 78:0 79:0 80:0 81:0 82:0 83:0 84:0 85:0 86:0 87:0 88:0 89:0 90:0 91:0 92:0 93:0 94:0 95:0 96:0 97:0 98:0 99:0 100:0 101:0 102:0 103:0 104:0 105:0 106:0 107:0 108:0 109:0 110:0 111:0 112:0 113:0 114:0 115:0 116:0 117:0 118:0 119:0 120:0 121:0 122:0 123:0 124:0 125:0 126:0 127:0 128:0 129:0 130:0 131:0 132:0 133:0 134:0 135:0 136:0 137:0 138:0 139:0 140:0 141:0 142:0 143:0 144:0 145:0 146:0 147:0 148:1 149:1 150:0 151:0 152:0 153:1 154:0 155:0 156:0 157:0 158:0 159:0 160:0 161:0 162:0 163:0 164:0 165:0 166:0 167:0 168:0 169:0 170:0 171:0 172:0 173:0 174:0 175:0 176:0 177:0 178:0 179:0 180:0 181:0 182:0 183:0 184:0 185:0 186:0 187:0 188:0 189:3 190:1 191:1 192:1 193:1 194:1 195:1 196:1 197:1 198:1 199:1 200:0 201:0 202:0 203:0 204:0 205:0 206:0 207:0 208:0 209:0 210:0 211:0 212:0 213:0 214:0 215:0 216:0 217:0 218:0 219:0 220:0 221:0 222:0 223:0 224:0 225:0 226:0 227:0 228:0 229:0 230:0 231:0 232:0 233:0 234:0 235:0 236:0 237:0 238:0 239:0 240:0 241:0 242:0 243:0 244:0 245:0 246:0 247:0 248:0 249:0 250:0 251:0 252:0 253:0 254:0 255:0 256:0 257:0 258:0 259:0 260:0 261:0 262:0 263:0 264:0 265:0 266:0 267:0 268:0 269:0 270:0 271:0 272:0 273:0 274:0 275:0 276:0 277:0 278:0 279:0 280:0 281:0 282:0 283:0 284:0 285:0 286:0 287:0 288:0 289:0 290:0 291:0 292:0 293:0 294:0 295:0 296:0 297:0 298:0 299:0 300:0 301:0 302:0 303:0 304:0 305:0 306:0 307:0 308:0 309:0 310:0 311:0 312:0 313:0 314:0 315:0 316:0 317:0 318:0 319:0 320:0 321:0 322:0 323:0 324:0 325:0 326:0 327:0 328:0 329:0 330:0 331:0 332:0 333:0 334:0 335:0 336:0 337:0 338:0 339:0 340:0 341:0 342:0 343:0 344:0 345:0 346:0 347:0 348:0 349:0 350:0 351:0 352:0 353:0 354:0 355:0 356:0 357:0 358:0 359:0 360:0 361:0 362:0 363:0 364:0 365:0 \r\n-20.7884140363372 0 0 0 0 0 0 0 0 1:0 2:0 3:0 4:1 5:1 6:1 7:0 8:0 9:0 10:0 11:0 12:0 13:0 14:0 15:0 16:0 17:0 18:0 19:0 20:0 21:0 22:0 23:0 24:0 25:0 26:0 27:0 28:0 29:0 30:0 31:0 32:0 33:0 34:0 35:0 36:0 37:0 38:0 39:0 40:0 41:0 42:0 43:0 44:0 45:0 46:0 47:0 48:0 49:0 50:0 51:0 52:0 53:0 54:0 55:0 56:1 57:1 58:1 59:0 60:0 61:0 62:0 63:0 64:0 65:0 66:0 67:0 68:0 69:0 70:0 71:0 72:0 73:0 74:0 75:0 76:0 77:0 78:0 79:0 80:0 81:0 82:0 83:0 84:0 85:0 86:0 87:0 88:0 89:0 90:0 91:0 92:0 93:0 94:0 95:0 96:0 97:0 98:0 99:0 100:0 101:0 102:0 103:0 104:0 105:0 106:0 107:0 108:0 109:0 110:0 111:0 112:0 113:0 114:0 115:0 116:0 117:0 118:0 119:0 120:0 121:0 122:0 123:0 124:0 125:0 126:0 127:0 128:0 129:0 130:0 131:0 132:0 133:0 134:0 135:0 136:0 137:0 138:0 139:0 140:0 141:0 142:0 143:0 144:0 145:0 146:0 147:0 148:0 149:0 150:0 151:0 152:0 153:0 154:0 155:0 156:0 157:0 158:0 159:0 160:0 161:0 162:0 163:0 164:0 165:0 166:0 167:0 168:0 169:0 170:0 171:0 172:0 173:0 174:0 175:0 176:0 177:0 178:0 179:0 180:0 181:0 182:0 183:0 184:0 185:0 186:0 187:0 188:0 189:0 190:0 191:0 192:0 193:0 194:0 195:0 196:0 197:0 198:0 199:0 200:0 201:0 202:0 203:0 204:0 205:0 206:0 207:0 208:0 209:0 210:0 211:0 212:0 213:0 214:0 215:0 216:0 217:0 218:0 219:0 220:0 221:0 222:0 223:0 224:0 225:0 226:0 227:0 228:0 229:0 230:0 231:0 232:0 233:0 234:0 235:0 236:0 237:0 238:0 239:0 240:0 241:0 242:0 243:0 244:0 245:0 246:0 247:0 248:0 249:0 250:0 251:0 252:0 253:0 254:0 255:0 256:0 257:0 258:0 259:0 260:0 261:0 262:0 263:0 264:0 265:0 266:0 267:0 268:0 269:0 270:0 271:0 272:0 273:0 274:0 275:0 276:0 277:0 278:0 279:0 280:0 281:0 282:0 283:0 284:0 285:0 286:0 287:0 288:0 289:0 290:0 291:0 292:0 293:0 294:0 295:0 296:0 297:0 298:0 299:0 300:0 301:0 302:0 303:0 304:0 305:0 306:0 307:0 308:0 309:0 310:0 311:0 312:0 313:0 314:0 315:0 316:0 317:0 318:0 319:0 320:0 321:0 322:0 323:0 324:0 325:0 326:0 327:0 328:0 329:0 330:0 331:0 332:0 333:0 334:0 335:0 336:0 337:0 338:0 339:0 340:0 341:0 342:0 343:0 344:0 345:0 346:0 347:0 348:0 349:0 350:0 351:0 352:0 353:0 354:0 355:0 356:0 357:0 358:0 359:0 360:0 361:0 362:0 363:0 364:0 365:0 \r\n-21.90308424813504 0 0 0 0 0 0 0 0.8907268119742101 1:0 2:0 3:0 4:1 5:1 6:1 7:0 8:0 9:0 10:0 11:0 12:0 13:0 14:0 15:0 16:0 17:0 18:0 19:0 20:0 21:0 22:0 23:0 24:0 25:0 26:0 27:0 28:0 29:0 30:0 31:0 32:0 33:0 34:0 35:0 36:0 37:0 38:0 39:0 40:0 41:0 42:0 43:0 44:0 45:0 46:0 47:0 48:0 49:0 50:0 51:0 52:0 53:0 54:0 55:0 56:0 57:0 58:1 59:0 60:1 61:1 62:0 63:0 64:0 65:0 66:0 67:0 68:0 69:0 70:0 71:0 72:0 73:0 74:0 75:0 76:0 77:0 78:0 79:0 80:0 81:0 82:0 83:0 84:0 85:0 86:0 87:0 88:0 89:0 90:0 91:0 92:0 93:0 94:0 95:0 96:0 97:0 98:0 99:0 100:0 101:0 102:0 103:0 104:0 105:0 106:0 107:0 108:0 109:0 110:0 111:0 112:0 113:0 114:0 115:0 116:0 117:0 118:0 119:0 120:0 121:0 122:0 123:0 124:0 125:0 126:0 127:0 128:0 129:0 130:0 131:0 132:0 133:0 134:0 135:0 136:0 137:0 138:0 139:0 140:0 141:0 142:0 143:0 144:0 145:0 146:0 147:0 148:0 149:0 150:0 151:0 152:0 153:0 154:0 155:0 156:0 157:0 158:0 159:0 160:0 161:0 162:0 163:0 164:0 165:0 166:0 167:0 168:0 169:0 170:0 171:0 172:0 173:0 174:0 175:0 176:0 177:0 178:0 179:0 180:0 181:0 182:0 183:0 184:0 185:0 186:0 187:0 188:0 189:0 190:0 191:0 192:0 193:0 194:0 195:0 196:0 197:0 198:0 199:0 200:0 201:0 202:0 203:0 204:0 205:0 206:0 207:0 208:0 209:0 210:0 211:0 212:0 213:0 214:0 215:0 216:0 217:0 218:0 219:0 220:0 221:0 222:0 223:0 224:0 225:0 226:0 227:0 228:0 229:0 230:0 231:0 232:0 233:0 234:0 235:0 236:0 237:0 238:0 239:0 240:0 241:0 242:0 243:0 244:0 245:0 246:0 247:0 248:0 249:0 250:0 251:0 252:0 253:0 254:0 255:0 256:0 257:0 258:0 259:0 260:0 261:0 262:0 263:0 264:0 265:0 266:0 267:0 268:0 269:0 270:0 271:0 272:0 273:0 274:0 275:0 276:0 277:0 278:0 279:0 280:0 281:0 282:0 283:0 284:0 285:0 286:0 287:0 288:0 289:0 290:0 291:0 292:0 293:0 294:0 295:0 296:0 297:0 298:0 299:0 300:0 301:0 302:0 303:0 304:0 305:0 306:0 307:0 308:0 309:0 310:0 311:0 312:0 313:0 314:0 315:0 316:0 317:0 318:0 319:0 320:0 321:0 322:0 323:0 324:0 325:0 326:0 327:0 328:0 329:0 330:0 331:0 332:0 333:0 334:0 335:0 336:0 337:0 338:0 339:0 340:0 341:0 342:0 343:0 344:0 345:0 346:0 347:0 348:0 349:0 350:0 351:0 352:0 353:0 354:0 355:0 356:0 357:0 358:0 359:0 360:0 361:0 362:0 363:0 364:0 365:0 \r\n-0.7699299604504956 8.408799229258237 0.4884520282890709 12.13583269065827 11.01708052825889 0 6.296374335774893 6.149918024480938 9.467835682130245 1:0 2:0 3:1 4:0 5:1 6:1 7:0 8:0 9:0 10:0 11:0 12:0 13:0 14:0 15:0 16:0 17:0 18:0 19:0 20:0 21:0 22:0 23:0 24:0 25:0 26:0 27:0 28:0 29:0 30:0 31:0 32:0 33:0 34:0 35:0 36:0 37:0 38:0 39:0 40:0 41:0 42:0 43:0 44:0 45:0 46:0 47:0 48:0 49:0 50:0 51:0 52:0 53:0 54:0 55:0 56:0 57:0 58:1 59:0 60:1 61:1 62:0 63:0 64:0 65:0 66:0 67:0 68:0 69:0 70:0 71:0 72:0 73:0 74:0 75:0 76:0 77:0 78:0 79:0 80:0 81:0 82:0 83:0 84:0 85:0 86:0 87:0 88:0 89:0 90:0 91:0 92:0 93:0 94:0 95:0 96:0 97:0 98:0 99:0 100:0 101:0 102:0 103:0 104:0 105:0 106:0 107:0 108:0 109:0 110:0 111:0 112:0 113:0 114:0 115:0 116:0 117:0 118:0 119:0 120:0 121:0 122:0 123:0 124:0 125:0 126:0 127:0 128:0 129:0 130:0 131:0 132:0 133:0 134:0 135:0 136:0 137:0 138:0 139:0 140:0 141:0 142:0 143:0 144:0 145:0 146:0 147:0 148:0 149:0 150:0 151:0 152:0 153:0 154:0 155:0 156:0 157:0 158:0 159:0 160:0 161:0 162:0 163:0 164:0 165:0 166:0 167:0 168:0 169:0 170:0 171:0 172:0 173:0 174:0 175:0 176:0 177:0 178:0 179:0 180:0 181:0 182:0 183:0 184:0 185:0 186:0 187:0 188:0 189:0 190:0 191:0 192:0 193:0 194:0 195:0 196:0 197:0 198:0 199:0 200:0 201:0 202:0 203:0 204:0 205:0 206:0 207:0 208:0 209:0 210:0 211:0 212:0 213:0 214:0 215:0 216:0 217:0 218:0 219:0 220:0 221:0 222:0 223:0 224:0 225:0 226:0 227:0 228:0 229:0 230:0 231:0 232:0 233:0 234:0 235:0 236:0 237:0 238:0 239:0 240:0 241:0 242:0 243:0 244:0 245:0 246:0 247:0 248:0 249:0 250:0 251:0 252:0 253:0 254:0 255:0 256:0 257:0 258:0 259:0 260:0 261:0 262:0 263:0 264:0 265:0 266:0 267:0 268:0 269:0 270:0 271:0 272:0 273:0 274:0 275:0 276:0 277:0 278:0 279:0 280:0 281:0 282:0 283:0 284:0 285:0 286:0 287:0 288:0 289:0 290:0 291:0 292:0 293:0 294:0 295:0 296:0 297:0 298:0 299:0 300:0 301:0 302:0 303:0 304:0 305:0 306:0 307:0 308:0 309:0 310:0 311:0 312:0 313:0 314:0 315:0 316:0 317:0 318:0 319:0 320:0 321:0 322:0 323:0 324:0 325:0 326:0 327:0 328:0 329:0 330:0 331:0 332:0 333:0 334:0 335:0 336:0 337:0 338:0 339:0 340:0 341:0 342:0 343:0 344:0 345:0 346:0 347:0 348:0 349:0 350:0 351:0 352:0 353:0 354:0 355:0 356:0 357:0 358:0 359:0 360:0 361:0 362:0 363:0 364:0 365:0 \r\n-0 0 0.8646459142561249 0 0 0.9304862430614632 0 0 0 1:0 2:0 3:1 4:0 5:1 6:0 7:1 8:0 9:0 10:0 11:0 12:0 13:0 14:0 15:0 16:0 17:0 18:0 19:0 20:0 21:0 22:0 23:0 24:0 25:0 26:0 27:0 28:0 29:0 30:0 31:0 32:0 33:0 34:0 35:0 36:0 37:0 38:0 39:0 40:0 41:0 42:0 43:0 44:0 45:0 46:0 47:0 48:0 49:0 50:0 51:0 52:0 53:0 54:1 55:1 56:0 57:0 58:0 59:0 60:0 61:0 62:0 63:0 64:0 65:0 66:0 67:0 68:0 69:0 70:0 71:0 72:0 73:0 74:0 75:0 76:0 77:0 78:0 79:0 80:0 81:0 82:0 83:0 84:0 85:0 86:0 87:0 88:0 89:0 90:0 91:0 92:0 93:0 94:0 95:0 96:0 97:0 98:0 99:0 100:0 101:0 102:0 103:0 104:0 105:0 106:0 107:0 108:0 109:0 110:0 111:0 112:0 113:0 114:0 115:0 116:0 117:0 118:0 119:0 120:0 121:0 122:0 123:0 124:0 125:0 126:0 127:0 128:0 129:0 130:0 131:0 132:0 133:0 134:0 135:0 136:0 137:0 138:0 139:0 140:0 141:0 142:0 143:0 144:0 145:0 146:0 147:0 148:0 149:0 150:0 151:0 152:0 153:0 154:0 155:0 156:0 157:0 158:0 159:0 160:0 161:0 162:0 163:0 164:0 165:0 166:0 167:0 168:0 169:0 170:0 171:0 172:0 173:0 174:0 175:0 176:0 177:0 178:0 179:0 180:0 181:0 182:0 183:0 184:0 185:0 186:0 187:0 188:0 189:0 190:0 191:0 192:0 193:0 194:0 195:0 196:0 197:0 198:0 199:0 200:0 201:0 202:0 203:0 204:0 205:0 206:0 207:0 208:0 209:0 210:0 211:0 212:0 213:0 214:0 215:0 216:0 217:0 218:0 219:0 220:0 221:0 222:0 223:0 224:0 225:0 226:0 227:0 228:0 229:0 230:0 231:0 232:0 233:0 234:0 235:0 236:0 237:0 238:0 239:0 240:0 241:0 242:0 243:0 244:0 245:0 246:0 247:0 248:0 249:0 250:0 251:0 252:0 253:0 254:0 255:0 256:0 257:0 258:0 259:0 260:0 261:0 262:0 263:0 264:0 265:0 266:0 267:0 268:0 269:0 270:0 271:0 272:0 273:0 274:0 275:0 276:0 277:0 278:0 279:0 280:0 281:0 282:0 283:0 284:0 285:0 286:0 287:0 288:0 289:0 290:0 291:0 292:0 293:0 294:0 295:0 296:0 297:0 298:0 299:0 300:0 301:0 302:0 303:0 304:0 305:0 306:0 307:0 308:0 309:0 310:0 311:0 312:0 313:0 314:0 315:0 316:0 317:0 318:0 319:0 320:0 321:0 322:0 323:0 324:0 325:0 326:0 327:0 328:0 329:0 330:0 331:0 332:0 333:0 334:0 335:0 336:0 337:0 338:0 339:0 340:0 341:0 342:0 343:0 344:0 345:0 346:0 347:0 348:0 349:0 350:0 351:0 352:0 353:0 354:0 355:0 356:0 357:0 358:0 359:0 360:0 361:0 362:0 363:0 364:0 365:0 \r\n-0 0 0.8646459142559752 0 0 16.59088260058572 0 0 0 1:0 2:0 3:1 4:0 5:1 6:0 7:1 8:0 9:0 10:0 11:0 12:0 13:0 14:0 15:0 16:0 17:0 18:0 19:0 20:0 21:0 22:0 23:0 24:0 25:0 26:0 27:0 28:0 29:0 30:0 31:0 32:0 33:0 34:0 35:0 36:0 37:0 38:0 39:0 40:0 41:0 42:0 43:0 44:0 45:0 46:0 47:0 48:0 49:0 50:1 51:1 52:0 53:0 54:0 55:0 56:0 57:0 58:0 59:0 60:0 61:0 62:0 63:0 64:0 65:0 66:0 67:0 68:0 69:0 70:0 71:0 72:0 73:0 74:0 75:0 76:0 77:0 78:0 79:0 80:0 81:0 82:0 83:0 84:0 85:0 86:0 87:0 88:0 89:0 90:0 91:0 92:0 93:0 94:0 95:0 96:0 97:0 98:0 99:0 100:0 101:0 102:0 103:0 104:0 105:0 106:0 107:0 108:0 109:0 110:0 111:0 112:0 113:0 114:0 115:0 116:0 117:0 118:0 119:0 120:0 121:0 122:0 123:0 124:0 125:0 126:0 127:0 128:0 129:0 130:0 131:0 132:0 133:0 134:0 135:0 136:0 137:0 138:0 139:0 140:0 141:0 142:0 143:0 144:0 145:0 146:0 147:0 148:0 149:0 150:0 151:0 152:0 153:0 154:0 155:0 156:0 157:0 158:0 159:0 160:0 161:0 162:0 163:0 164:0 165:0 166:0 167:0 168:0 169:0 170:0 171:0 172:0 173:0 174:0 175:0 176:0 177:0 178:0 179:0 180:0 181:0 182:0 183:0 184:0 185:0 186:0 187:0 188:0 189:0 190:0 191:0 192:0 193:0 194:0 195:0 196:0 197:0 198:0 199:0 200:0 201:0 202:0 203:0 204:0 205:0 206:0 207:0 208:0 209:0 210:0 211:0 212:0 213:0 214:0 215:0 216:0 217:0 218:0 219:0 220:0 221:0 222:0 223:0 224:0 225:0 226:0 227:0 228:0 229:0 230:0 231:0 232:0 233:0 234:0 235:0 236:0 237:0 238:0 239:0 240:0 241:0 242:0 243:0 244:0 245:0 246:0 247:0 248:0 249:0 250:0 251:0 252:0 253:0 254:0 255:0 256:0 257:0 258:0 259:0 260:0 261:0 262:0 263:0 264:0 265:0 266:0 267:0 268:0 269:0 270:0 271:0 272:0 273:0 274:0 275:0 276:0 277:0 278:0 279:0 280:0 281:0 282:0 283:0 284:0 285:0 286:0 287:0 288:0 289:0 290:0 291:0 292:0 293:0 294:0 295:0 296:0 297:0 298:0 299:0 300:0 301:0 302:0 303:0 304:0 305:0 306:0 307:0 308:0 309:0 310:0 311:0 312:0 313:0 314:0 315:0 316:0 317:0 318:0 319:0 320:0 321:0 322:0 323:0 324:0 325:0 326:0 327:0 328:0 329:0 330:0 331:0 332:0 333:0 334:0 335:0 336:0 337:0 338:0 339:0 340:0 341:0 342:0 343:0 344:0 345:0 346:0 347:0 348:0 349:0 350:0 351:0 352:0 353:0 354:0 355:0 356:0 357:0 358:0 359:0 360:0 361:0 362:0 363:0 364:0 365:0 \r\n-2.531567653160715 26.9621376207715 0.4856549188725781 12.13571307977066 11.03877538871331 7.143163791488488 7.523959397422895 6.149918024481242 10.34886091491336 1:0 2:0 3:1 4:0 5:1 6:1 7:0 8:0 9:0 10:0 11:0 12:0 13:0 14:0 15:0 16:0 17:0 18:0 19:0 20:0 21:0 22:0 23:0 24:0 25:0 26:0 27:0 28:0 29:0 30:0 31:0 32:0 33:0 34:0 35:0 36:0 37:0 38:0 39:0 40:0 41:0 42:0 43:0 44:0 45:0 46:0 47:0 48:0 49:0 50:0 51:0 52:0 53:0 54:0 55:0 56:1 57:1 58:1 59:0 60:0 61:0 62:0 63:0 64:0 65:0 66:0 67:0 68:0 69:0 70:0 71:0 72:0 73:0 74:0 75:0 76:0 77:0 78:0 79:0 80:0 81:0 82:0 83:0 84:0 85:0 86:0 87:0 88:0 89:0 90:0 91:0 92:0 93:0 94:0 95:0 96:0 97:0 98:0 99:0 100:0 101:0 102:0 103:0 104:0 105:0 106:0 107:0 108:0 109:0 110:0 111:0 112:0 113:0 114:0 115:0 116:0 117:0 118:0 119:0 120:0 121:0 122:0 123:0 124:0 125:0 126:0 127:0 128:0 129:0 130:0 131:0 132:0 133:0 134:0 135:0 136:0 137:0 138:0 139:0 140:0 141:0 142:0 143:0 144:0 145:0 146:0 147:0 148:0 149:0 150:0 151:0 152:0 153:0 154:0 155:0 156:0 157:0 158:0 159:0 160:0 161:0 162:0 163:0 164:0 165:0 166:0 167:0 168:0 169:0 170:0 171:0 172:0 173:0 174:0 175:0 176:0 177:0 178:0 179:0 180:0 181:0 182:0 183:0 184:0 185:0 186:0 187:0 188:0 189:0 190:0 191:0 192:0 193:0 194:0 195:0 196:0 197:0 198:0 199:0 200:0 201:0 202:0 203:0 204:0 205:0 206:0 207:0 208:0 209:0 210:0 211:0 212:0 213:0 214:0 215:0 216:0 217:0 218:0 219:0 220:0 221:0 222:0 223:0 224:0 225:0 226:0 227:0 228:0 229:0 230:0 231:0 232:0 233:0 234:0 235:0 236:0 237:0 238:0 239:0 240:0 241:0 242:0 243:0 244:0 245:0 246:0 247:0 248:0 249:0 250:0 251:0 252:0 253:0 254:0 255:0 256:0 257:0 258:0 259:0 260:0 261:0 262:0 263:0 264:0 265:0 266:0 267:0 268:0 269:0 270:0 271:0 272:0 273:0 274:0 275:0 276:0 277:0 278:0 279:0 280:0 281:0 282:0 283:0 284:0 285:0 286:0 287:0 288:0 289:0 290:0 291:0 292:0 293:0 294:0 295:0 296:0 297:0 298:0 299:0 300:0 301:0 302:0 303:0 304:0 305:0 306:0 307:0 308:0 309:0 310:0 311:0 312:0 313:0 314:0 315:0 316:0 317:0 318:0 319:0 320:0 321:0 322:0 323:0 324:0 325:0 326:0 327:0 328:0 329:0 330:0 331:0 332:0 333:0 334:0 335:0 336:0 337:0 338:0 339:0 340:0 341:0 342:0 343:0 344:0 345:0 346:0 347:0 348:0 349:0 350:0 351:0 352:0 353:0 354:0 355:0 356:0 357:0 358:0 359:0 360:0 361:0 362:0 363:0 364:0 365:0 \r\n-5.816303204047802 -3.588679183725561 3.008537858484101 10.97137765248514 4.7425004744902 4.891904208276504 2.41765637120111 5.43387665687738 4.972074876828288 1:0 2:0 3:0 4:0 5:0 6:0 7:0 8:0 9:0 10:0 11:0 12:0 13:0 14:1 15:0 16:0 17:0 18:0 19:0 20:0 21:0 22:0 23:0 24:0 25:0 26:0 27:0 28:0 29:0 30:0 31:0 32:0 33:0 34:0 35:0 36:0 37:0 38:0 39:0 40:0 41:0 42:0 43:0 44:0 45:0 46:0 47:0 48:0 49:0 50:0 51:0 52:0 53:0 54:0 55:0 56:0 57:0 58:0 59:0 60:0 61:0 62:0 63:0 64:1 65:0 66:0 67:0 68:0 69:0 70:0 71:1 72:0 73:0 74:1 75:0 76:0 77:0 78:0 79:0 80:0 81:0 82:0 83:0 84:0 85:0 86:0 87:0 88:0 89:0 90:0 91:0 92:0 93:0 94:0 95:0 96:0 97:0 98:0 99:0 100:0 101:0 102:0 103:0 104:0 105:0 106:0 107:0 108:0 109:0 110:0 111:0 112:0 113:0 114:0 115:0 116:0 117:0 118:0 119:0 120:0 121:0 122:0 123:0 124:0 125:0 126:0 127:0 128:0 129:0 130:0 131:0 132:0 133:0 134:0 135:0 136:0 137:0 138:0 139:0 140:0 141:0 142:0 143:0 144:0 145:0 146:0 147:0 148:0 149:0 150:0 151:0 152:0 153:0 154:0 155:0 156:0 157:0 158:0 159:0 160:0 161:0 162:0 163:0 164:0 165:0 166:0 167:0 168:0 169:0 170:0 171:0 172:0 173:0 174:0 175:0 176:0 177:0 178:0 179:0 180:0 181:0 182:0 183:0 184:0 185:0 186:0 187:0 188:0 189:0 190:0 191:0 192:0 193:0 194:0 195:0 196:0 197:0 198:0 199:0 200:0 201:0 202:0 203:0 204:0 205:0 206:0 207:0 208:0 209:0 210:0 211:0 212:0 213:0 214:0 215:0 216:0 217:0 218:0 219:0 220:0 221:0 222:0 223:0 224:0 225:0 226:0 227:0 228:0 229:0 230:0 231:0 232:0 233:0 234:0 235:0 236:0 237:0 238:0 239:0 240:0 241:0 242:0 243:0 244:0 245:0 246:0 247:0 248:0 249:0 250:0 251:0 252:0 253:0 254:0 255:0 256:0 257:0 258:0 259:0 260:0 261:0 262:0 263:0 264:0 265:0 266:0 267:0 268:0 269:0 270:0 271:0 272:0 273:0 274:0 275:0 276:0 277:0 278:0 279:0 280:0 281:0 282:0 283:0 284:0 285:0 286:0 287:0 288:0 289:0 290:0 291:0 292:0 293:0 294:0 295:0 296:0 297:0 298:0 299:0 300:0 301:0 302:0 303:0 304:0 305:0 306:0 307:0 308:0 309:0 310:0 311:0 312:0 313:0 314:0 315:0 316:0 317:0 318:0 319:0 320:0 321:0 322:0 323:0 324:0 325:0 326:0 327:0 328:0 329:0 330:0 331:0 332:0 333:0 334:0 335:0 336:0 337:0 338:0 339:0 340:0 341:0 342:0 343:0 344:0 345:0 346:0 347:0 348:0 349:0 350:0 351:0 352:0 353:0 354:0 355:0 356:0 357:0 358:0 359:0 360:0 361:0 362:0 363:0 364:0 365:0 \r\n-5.800850802395374 -3.626020134239984 3.062058092536317 11.0317073274549 4.824464693095737 4.892544071961162 2.597572998746063 5.414938745280906 5.050446110543378 1:0 2:0 3:0 4:0 5:0 6:0 7:0 8:0 9:0 10:0 11:0 12:0 13:0 14:1 15:0 16:0 17:0 18:0 19:0 20:0 21:0 22:0 23:0 24:0 25:0 26:0 27:0 28:0 29:0 30:0 31:0 32:0 33:0 34:0 35:0 36:0 37:0 38:0 39:0 40:0 41:0 42:0 43:0 44:0 45:0 46:0 47:0 48:0 49:0 50:0 51:0 52:0 53:0 54:0 55:0 56:0 57:0 58:0 59:0 60:0 61:0 62:0 63:0 64:1 65:0 66:0 67:0 68:0 69:0 70:0 71:1 72:0 73:0 74:0 75:0 76:0 77:0 78:1 79:0 80:0 81:0 82:0 83:0 84:0 85:0 86:0 87:0 88:0 89:0 90:0 91:0 92:0 93:0 94:0 95:0 96:0 97:0 98:0 99:0 100:0 101:0 102:0 103:0 104:0 105:0 106:0 107:0 108:0 109:0 110:0 111:0 112:0 113:0 114:0 115:0 116:0 117:0 118:0 119:0 120:0 121:0 122:0 123:0 124:0 125:0 126:0 127:0 128:0 129:0 130:0 131:0 132:0 133:0 134:0 135:0 136:0 137:0 138:0 139:0 140:0 141:0 142:0 143:0 144:0 145:0 146:0 147:0 148:0 149:0 150:0 151:0 152:0 153:0 154:0 155:0 156:0 157:0 158:0 159:0 160:0 161:0 162:0 163:0 164:0 165:0 166:0 167:0 168:0 169:0 170:0 171:0 172:0 173:0 174:0 175:0 176:0 177:0 178:0 179:0 180:0 181:0 182:0 183:0 184:0 185:0 186:0 187:0 188:0 189:0 190:0 191:0 192:0 193:0 194:0 195:0 196:0 197:0 198:0 199:0 200:0 201:0 202:0 203:0 204:0 205:0 206:0 207:0 208:0 209:0 210:0 211:0 212:0 213:0 214:0 215:0 216:0 217:0 218:0 219:0 220:0 221:0 222:0 223:0 224:0 225:0 226:0 227:0 228:0 229:0 230:0 231:0 232:0 233:0 234:0 235:0 236:0 237:0 238:0 239:0 240:0 241:0 242:0 243:0 244:0 245:0 246:0 247:0 248:0 249:0 250:0 251:0 252:0 253:0 254:0 255:0 256:0 257:0 258:0 259:0 260:0 261:0 262:0 263:0 264:0 265:0 266:0 267:0 268:0 269:0 270:0 271:0 272:0 273:0 274:0 275:0 276:0 277:0 278:0 279:0 280:0 281:0 282:0 283:0 284:0 285:0 286:0 287:0 288:0 289:0 290:0 291:0 292:0 293:0 294:0 295:0 296:0 297:0 298:0 299:0 300:0 301:0 302:0 303:0 304:0 305:0 306:0 307:0 308:0 309:0 310:0 311:0 312:0 313:0 314:0 315:0 316:0 317:0 318:0 319:0 320:0 321:0 322:0 323:0 324:0 325:0 326:0 327:0 328:0 329:0 330:0 331:0 332:0 333:0 334:0 335:0 336:0 337:0 338:0 339:0 340:0 341:0 342:0 343:0 344:0 345:0 346:0 347:0 348:0 349:0 350:0 351:0 352:0 353:0 354:0 355:0 356:0 357:0 358:0 359:0 360:0 361:0 362:0 363:0 364:0 365:0 \r\n-0 -0 0 3.828447791232582 0 0 0 47.18409865307267 3.945928474825971 1:0 2:0 3:0 4:0 5:0 6:0 7:0 8:0 9:1 10:0 11:0 12:0 13:1 14:0 15:0 16:0 17:0 18:0 19:0 20:0 21:0 22:0 23:0 24:0 25:0 26:0 27:0 28:0 29:0 30:0 31:0 32:0 33:0 34:0 35:0 36:0 37:0 38:0 39:0 40:0 41:0 42:0 43:0 44:0 45:0 46:0 47:0 48:0 49:0 50:0 51:0 52:0 53:0 54:0 55:0 56:0 57:0 58:0 59:0 60:0 61:0 62:0 63:0 64:1 65:1 66:1 67:0 68:0 69:0 70:0 71:0 72:0 73:0 74:0 75:0 76:0 77:0 78:0 79:0 80:0 81:0 82:0 83:0 84:0 85:0 86:0 87:0 88:0 89:0 90:0 91:0 92:0 93:0 94:0 95:0 96:0 97:0 98:0 99:0 100:0 101:0 102:0 103:0 104:0 105:0 106:0 107:0 108:0 109:0 110:0 111:0 112:0 113:0 114:0 115:0 116:0 117:0 118:0 119:0 120:0 121:0 122:0 123:0 124:0 125:0 126:0 127:0 128:0 129:0 130:0 131:0 132:0 133:0 134:0 135:0 136:0 137:0 138:0 139:0 140:0 141:0 142:0 143:0 144:0 145:0 146:0 147:0 148:0 149:0 150:0 151:0 152:0 153:0 154:0 155:0 156:0 157:0 158:0 159:0 160:0 161:0 162:0 163:0 164:0 165:0 166:0 167:0 168:0 169:0 170:0 171:0 172:0 173:0 174:0 175:0 176:0 177:0 178:0 179:0 180:0 181:0 182:0 183:0 184:0 185:0 186:0 187:0 188:0 189:0 190:0 191:0 192:0 193:0 194:0 195:0 196:0 197:0 198:0 199:0 200:0 201:0 202:0 203:0 204:0 205:0 206:0 207:0 208:0 209:0 210:0 211:0 212:0 213:0 214:0 215:0 216:0 217:0 218:0 219:0 220:0 221:0 222:0 223:0 224:0 225:0 226:0 227:0 228:0 229:0 230:0 231:0 232:0 233:0 234:0 235:0 236:0 237:0 238:0 239:0 240:0 241:0 242:0 243:0 244:0 245:0 246:0 247:0 248:0 249:0 250:0 251:0 252:0 253:0 254:0 255:0 256:0 257:0 258:0 259:0 260:0 261:0 262:0 263:0 264:0 265:0 266:0 267:0 268:0 269:0 270:0 271:0 272:0 273:0 274:0 275:0 276:0 277:0 278:0 279:0 280:0 281:0 282:0 283:0 284:0 285:0 286:0 287:0 288:0 289:0 290:0 291:0 292:0 293:0 294:0 295:0 296:0 297:0 298:0 299:0 300:0 301:0 302:0 303:0 304:0 305:0 306:0 307:0 308:0 309:0 310:0 311:0 312:0 313:0 314:0 315:0 316:0 317:0 318:0 319:0 320:0 321:0 322:0 323:0 324:0 325:0 326:0 327:0 328:0 329:0 330:0 331:0 332:0 333:0 334:0 335:0 336:0 337:0 338:0 339:0 340:0 341:0 342:0 343:0 344:0 345:0 346:0 347:0 348:0 349:0 350:0 351:0 352:0 353:0 354:0 355:0 356:0 357:0 358:0 359:0 360:0 361:0 362:0 363:0 364:0 365:0 \r\n-43.5422252681781 -37.64575888091238 31.93724548387878 50.40661137334992 134.0973574222951 16.98601413595082 34.8274743090464 89.85096205879684 18.64466837668871 1:0 2:0 3:0 4:0 5:0 6:0 7:0 8:0 9:1 10:0 11:0 12:0 13:1 14:0 15:0 16:0 17:0 18:0 19:0 20:0 21:0 22:0 23:0 24:0 25:0 26:0 27:0 28:0 29:0 30:0 31:0 32:0 33:0 34:0 35:0 36:0 37:0 38:0 39:0 40:0 41:0 42:0 43:0 44:0 45:0 46:0 47:0 48:0 49:0 50:0 51:0 52:0 53:0 54:0 55:0 56:1 57:0 58:0 59:0 60:0 61:0 62:0 63:0 64:0 65:0 66:0 67:0 68:0 69:0 70:0 71:0 72:0 73:0 74:0 75:0 76:0 77:0 78:0 79:0 80:0 81:0 82:0 83:0 84:0 85:0 86:0 87:0 88:0 89:0 90:0 91:0 92:0 93:0 94:0 95:0 96:0 97:0 98:0 99:0 100:0 101:0 102:0 103:0 104:0 105:0 106:0 107:0 108:0 109:0 110:0 111:0 112:0 113:0 114:0 115:0 116:0 117:0 118:0 119:0 120:0 121:0 122:0 123:0 124:0 125:0 126:0 127:0 128:0 129:0 130:0 131:0 132:0 133:0 134:0 135:0 136:0 137:0 138:0 139:0 140:0 141:0 142:0 143:0 144:0 145:0 146:0 147:0 148:0 149:0 150:0 151:0 152:0 153:0 154:0 155:0 156:0 157:0 158:0 159:0 160:0 161:0 162:0 163:0 164:0 165:0 166:0 167:0 168:0 169:0 170:0 171:0 172:0 173:0 174:0 175:0 176:0 177:0 178:0 179:0 180:0 181:0 182:0 183:0 184:0 185:0 186:0 187:0 188:0 189:0 190:0 191:0 192:0 193:0 194:0 195:0 196:0 197:0 198:0 199:0 200:0 201:0 202:0 203:0 204:0 205:0 206:0 207:0 208:0 209:0 210:0 211:0 212:0 213:0 214:0 215:0 216:0 217:0 218:0 219:0 220:0 221:0 222:0 223:0 224:0 225:0 226:0 227:0 228:0 229:0 230:0 231:0 232:0 233:0 234:0 235:0 236:0 237:0 238:0 239:0 240:0 241:0 242:0 243:0 244:0 245:0 246:0 247:0 248:0 249:0 250:0 251:0 252:0 253:0 254:0 255:0 256:0 257:0 258:0 259:0 260:0 261:0 262:0 263:0 264:0 265:0 266:0 267:0 268:0 269:0 270:0 271:0 272:0 273:0 274:0 275:0 276:0 277:0 278:0 279:0 280:0 281:0 282:0 283:0 284:0 285:0 286:0 287:0 288:0 289:0 290:0 291:0 292:0 293:0 294:0 295:0 296:0 297:0 298:0 299:0 300:0 301:0 302:0 303:0 304:0 305:0 306:0 307:0 308:0 309:0 310:0 311:0 312:0 313:0 314:0 315:0 316:0 317:0 318:0 319:0 320:0 321:0 322:0 323:0 324:0 325:0 326:0 327:0 328:0 329:0 330:0 331:0 332:0 333:0 334:0 335:0 336:0 337:0 338:0 339:0 340:0 341:0 342:0 343:0 344:0 345:0 346:0 347:0 348:0 349:0 350:0 351:0 352:0 353:0 354:0 355:0 356:0 357:0 358:0 359:0 360:0 361:0 362:0 363:0 364:0 365:0 \r\n-82.84703972210325 -44.14905922280509 36.34003121911405 78.59998492629026 0 0 26.36750943412318 27.73766239649648 23.84211618704753 1:0 2:0 3:0 4:0 5:0 6:0 7:0 8:0 9:0 10:0 11:1 12:0 13:1 14:0 15:0 16:0 17:0 18:0 19:0 20:0 21:0 22:0 23:0 24:0 25:0 26:0 27:0 28:0 29:0 30:0 31:0 32:0 33:0 34:0 35:0 36:0 37:0 38:0 39:0 40:0 41:0 42:0 43:0 44:0 45:0 46:0 47:0 48:0 49:0 50:0 51:0 52:0 53:0 54:0 55:0 56:0 57:0 58:0 59:0 60:0 61:0 62:0 63:0 64:0 65:0 66:0 67:0 68:0 69:0 70:0 71:0 72:0 73:0 74:0 75:0 76:0 77:0 78:0 79:0 80:0 81:0 82:0 83:0 84:0 85:0 86:0 87:0 88:0 89:0 90:0 91:0 92:0 93:0 94:0 95:0 96:0 97:0 98:0 99:0 100:0 101:0 102:0 103:0 104:0 105:0 106:0 107:0 108:0 109:0 110:0 111:0 112:0 113:0 114:0 115:0 116:0 117:0 118:0 119:0 120:0 121:0 122:0 123:0 124:0 125:0 126:0 127:0 128:0 129:0 130:0 131:0 132:0 133:0 134:0 135:0 136:0 137:0 138:0 139:0 140:0 141:0 142:0 143:0 144:0 145:0 146:0 147:0 148:0 149:0 150:0 151:0 152:0 153:0 154:0 155:0 156:0 157:0 158:0 159:0 160:0 161:0 162:0 163:0 164:0 165:0 166:0 167:0 168:0 169:0 170:0 171:0 172:0 173:0 174:0 175:0 176:0 177:0 178:0 179:0 180:0 181:0 182:0 183:0 184:0 185:0 186:0 187:0 188:0 189:0 190:0 191:0 192:0 193:0 194:0 195:0 196:0 197:0 198:0 199:0 200:0 201:0 202:0 203:0 204:0 205:0 206:0 207:0 208:0 209:0 210:0 211:0 212:0 213:0 214:0 215:0 216:0 217:0 218:0 219:0 220:0 221:0 222:0 223:0 224:0 225:0 226:0 227:0 228:0 229:0 230:0 231:0 232:0 233:0 234:0 235:0 236:0 237:0 238:0 239:0 240:0 241:0 242:0 243:0 244:0 245:0 246:0 247:0 248:0 249:0 250:0 251:0 252:0 253:0 254:0 255:0 256:0 257:0 258:0 259:0 260:0 261:0 262:0 263:0 264:0 265:0 266:0 267:0 268:0 269:0 270:0 271:0 272:0 273:0 274:0 275:0 276:0 277:0 278:0 279:0 280:0 281:0 282:0 283:0 284:0 285:0 286:0 287:0 288:0 289:0 290:0 291:0 292:0 293:0 294:0 295:0 296:0 297:0 298:0 299:0 300:0 301:0 302:0 303:0 304:0 305:0 306:0 307:0 308:0 309:0 310:0 311:0 312:0 313:0 314:0 315:0 316:0 317:0 318:0 319:0 320:0 321:0 322:0 323:0 324:0 325:0 326:0 327:0 328:0 329:0 330:0 331:0 332:0 333:0 334:0 335:0 336:0 337:0 338:0 339:0 340:0 341:0 342:0 343:0 344:0 345:0 346:0 347:0 348:0 349:0 350:0 351:0 352:0 353:0 354:0 355:0 356:0 357:0 358:0 359:0 360:0 361:0 362:0 363:0 364:0 365:0 \r\n-0 -0 0 0 0 0 0 4.709011446870463 0 1:0 2:0 3:0 4:0 5:0 6:0 7:0 8:0 9:1 10:0 11:1 12:0 13:1 14:0 15:0 16:0 17:0 18:0 19:0 20:0 21:0 22:0 23:0 24:0 25:0 26:0 27:0 28:0 29:0 30:0 31:0 32:0 33:0 34:0 35:0 36:0 37:0 38:0 39:0 40:0 41:0 42:0 43:0 44:0 45:0 46:0 47:0 48:0 49:0 50:0 51:0 52:0 53:0 54:0 55:0 56:0 57:0 58:0 59:0 60:0 61:0 62:0 63:0 64:1 65:0 66:0 67:0 68:0 69:1 70:0 71:0 72:0 73:0 74:0 75:0 76:0 77:0 78:0 79:0 80:0 81:0 82:0 83:0 84:0 85:0 86:0 87:0 88:0 89:0 90:0 91:0 92:0 93:0 94:0 95:0 96:0 97:0 98:0 99:0 100:0 101:0 102:0 103:0 104:0 105:0 106:0 107:0 108:0 109:0 110:0 111:0 112:0 113:0 114:0 115:0 116:0 117:0 118:0 119:0 120:0 121:0 122:0 123:0 124:0 125:0 126:0 127:0 128:0 129:0 130:0 131:0 132:0 133:0 134:0 135:0 136:0 137:0 138:0 139:0 140:0 141:0 142:0 143:0 144:0 145:0 146:0 147:0 148:0 149:0 150:0 151:0 152:0 153:0 154:0 155:0 156:0 157:0 158:0 159:0 160:0 161:0 162:0 163:0 164:0 165:0 166:0 167:0 168:0 169:0 170:0 171:0 172:0 173:0 174:0 175:0 176:0 177:0 178:0 179:0 180:0 181:0 182:0 183:0 184:0 185:0 186:0 187:0 188:0 189:0 190:0 191:0 192:0 193:0 194:0 195:0 196:0 197:0 198:0 199:0 200:0 201:0 202:0 203:0 204:0 205:0 206:0 207:0 208:0 209:0 210:0 211:0 212:0 213:0 214:0 215:0 216:0 217:0 218:0 219:0 220:0 221:0 222:0 223:0 224:0 225:0 226:0 227:0 228:0 229:0 230:0 231:0 232:0 233:0 234:0 235:0 236:0 237:0 238:0 239:0 240:0 241:0 242:0 243:0 244:0 245:0 246:0 247:0 248:0 249:0 250:0 251:0 252:0 253:0 254:0 255:0 256:0 257:0 258:0 259:0 260:0 261:0 262:0 263:0 264:0 265:0 266:0 267:0 268:0 269:0 270:0 271:0 272:0 273:0 274:0 275:0 276:0 277:0 278:0 279:0 280:0 281:0 282:0 283:0 284:0 285:0 286:0 287:0 288:0 289:0 290:0 291:0 292:0 293:0 294:0 295:0 296:0 297:0 298:0 299:0 300:0 301:0 302:0 303:0 304:0 305:0 306:0 307:0 308:0 309:0 310:0 311:0 312:0 313:0 314:0 315:0 316:0 317:0 318:0 319:0 320:0 321:0 322:0 323:0 324:0 325:0 326:0 327:0 328:0 329:0 330:0 331:0 332:0 333:0 334:0 335:0 336:0 337:0 338:0 339:0 340:0 341:0 342:0 343:0 344:0 345:0 346:0 347:0 348:0 349:0 350:0 351:0 352:0 353:0 354:0 355:0 356:0 357:0 358:0 359:0 360:0 361:0 362:0 363:0 364:0 365:0 \r\n-0 -0 0 0 0 0 0 4.619135383839066 0 1:0 2:0 3:0 4:0 5:0 6:0 7:0 8:0 9:1 10:0 11:1 12:0 13:1 14:0 15:0 16:0 17:0 18:0 19:0 20:0 21:0 22:0 23:0 24:0 25:0 26:0 27:0 28:0 29:0 30:0 31:0 32:0 33:0 34:0 35:0 36:0 37:0 38:0 39:0 40:0 41:0 42:0 43:0 44:0 45:0 46:0 47:0 48:0 49:0 50:0 51:0 52:0 53:0 54:0 55:0 56:0 57:0 58:0 59:0 60:0 61:0 62:0 63:0 64:1 65:0 66:0 67:0 68:1 69:0 70:0 71:0 72:0 73:0 74:0 75:0 76:0 77:0 78:0 79:0 80:0 81:0 82:0 83:0 84:0 85:0 86:0 87:0 88:0 89:0 90:0 91:0 92:0 93:0 94:0 95:0 96:0 97:0 98:0 99:0 100:0 101:0 102:0 103:0 104:0 105:0 106:0 107:0 108:0 109:0 110:0 111:0 112:0 113:0 114:0 115:0 116:0 117:0 118:0 119:0 120:0 121:0 122:0 123:0 124:0 125:0 126:0 127:0 128:0 129:0 130:0 131:0 132:0 133:0 134:0 135:0 136:0 137:0 138:0 139:0 140:0 141:0 142:0 143:0 144:0 145:0 146:0 147:0 148:0 149:0 150:0 151:0 152:0 153:0 154:0 155:0 156:0 157:0 158:0 159:0 160:0 161:0 162:0 163:0 164:0 165:0 166:0 167:0 168:0 169:0 170:0 171:0 172:0 173:0 174:0 175:0 176:0 177:0 178:0 179:0 180:0 181:0 182:0 183:0 184:0 185:0 186:0 187:0 188:0 189:0 190:0 191:0 192:0 193:0 194:0 195:0 196:0 197:0 198:0 199:0 200:0 201:0 202:0 203:0 204:0 205:0 206:0 207:0 208:0 209:0 210:0 211:0 212:0 213:0 214:0 215:0 216:0 217:0 218:0 219:0 220:0 221:0 222:0 223:0 224:0 225:0 226:0 227:0 228:0 229:0 230:0 231:0 232:0 233:0 234:0 235:0 236:0 237:0 238:0 239:0 240:0 241:0 242:0 243:0 244:0 245:0 246:0 247:0 248:0 249:0 250:0 251:0 252:0 253:0 254:0 255:0 256:0 257:0 258:0 259:0 260:0 261:0 262:0 263:0 264:0 265:0 266:0 267:0 268:0 269:0 270:0 271:0 272:0 273:0 274:0 275:0 276:0 277:0 278:0 279:0 280:0 281:0 282:0 283:0 284:0 285:0 286:0 287:0 288:0 289:0 290:0 291:0 292:0 293:0 294:0 295:0 296:0 297:0 298:0 299:0 300:0 301:0 302:0 303:0 304:0 305:0 306:0 307:0 308:0 309:0 310:0 311:0 312:0 313:0 314:0 315:0 316:0 317:0 318:0 319:0 320:0 321:0 322:0 323:0 324:0 325:0 326:0 327:0 328:0 329:0 330:0 331:0 332:0 333:0 334:0 335:0 336:0 337:0 338:0 339:0 340:0 341:0 342:0 343:0 344:0 345:0 346:0 347:0 348:0 349:0 350:0 351:0 352:0 353:0 354:0 355:0 356:0 357:0 358:0 359:0 360:0 361:0 362:0 363:0 364:0 365:0 \r\n-0 -0 0 0 38.13735669601133 0 0 0.6332786618358138 0 1:0 2:0 3:0 4:0 5:0 6:0 7:0 8:0 9:1 10:0 11:1 12:0 13:1 14:0 15:0 16:0 17:0 18:0 19:0 20:0 21:0 22:0 23:0 24:0 25:0 26:0 27:0 28:0 29:0 30:0 31:0 32:0 33:0 34:0 35:0 36:0 37:0 38:0 39:0 40:0 41:0 42:0 43:0 44:0 45:0 46:0 47:0 48:0 49:0 50:0 51:0 52:0 53:0 54:0 55:0 56:0 57:0 58:0 59:0 60:0 61:0 62:0 63:0 64:0 65:0 66:0 67:0 68:0 69:0 70:0 71:0 72:0 73:0 74:0 75:0 76:0 77:0 78:0 79:0 80:0 81:0 82:0 83:0 84:0 85:0 86:0 87:0 88:0 89:0 90:0 91:0 92:0 93:0 94:0 95:0 96:0 97:0 98:0 99:0 100:0 101:0 102:0 103:0 104:0 105:0 106:0 107:0 108:0 109:0 110:0 111:0 112:0 113:0 114:0 115:0 116:0 117:0 118:0 119:0 120:0 121:0 122:0 123:0 124:0 125:0 126:0 127:0 128:0 129:0 130:0 131:0 132:0 133:0 134:0 135:0 136:0 137:0 138:0 139:0 140:0 141:0 142:0 143:0 144:0 145:0 146:0 147:0 148:0 149:0 150:0 151:0 152:0 153:0 154:0 155:0 156:0 157:0 158:0 159:0 160:0 161:0 162:0 163:0 164:0 165:0 166:0 167:0 168:0 169:0 170:0 171:0 172:0 173:0 174:0 175:0 176:0 177:0 178:0 179:0 180:0 181:0 182:0 183:0 184:0 185:0 186:0 187:0 188:0 189:0 190:0 191:0 192:0 193:0 194:0 195:0 196:0 197:0 198:0 199:0 200:0 201:0 202:0 203:0 204:0 205:0 206:0 207:0 208:0 209:0 210:0 211:0 212:0 213:0 214:0 215:0 216:0 217:0 218:0 219:0 220:0 221:0 222:0 223:0 224:0 225:0 226:0 227:0 228:0 229:0 230:0 231:0 232:0 233:0 234:0 235:0 236:0 237:0 238:0 239:0 240:0 241:0 242:0 243:0 244:0 245:0 246:0 247:0 248:0 249:0 250:0 251:0 252:0 253:0 254:0 255:0 256:0 257:0 258:0 259:0 260:0 261:0 262:0 263:0 264:0 265:0 266:0 267:0 268:0 269:0 270:0 271:0 272:0 273:0 274:0 275:0 276:0 277:0 278:0 279:0 280:0 281:0 282:0 283:0 284:0 285:0 286:0 287:0 288:0 289:0 290:0 291:0 292:0 293:0 294:0 295:0 296:0 297:0 298:0 299:0 300:0 301:0 302:0 303:0 304:0 305:0 306:0 307:0 308:0 309:0 310:0 311:0 312:0 313:0 314:0 315:0 316:0 317:0 318:0 319:0 320:0 321:0 322:0 323:0 324:0 325:0 326:0 327:0 328:0 329:0 330:0 331:0 332:0 333:0 334:0 335:0 336:0 337:0 338:0 339:0 340:0 341:0 342:0 343:0 344:0 345:0 346:0 347:0 348:0 349:0 350:0 351:0 352:0 353:0 354:0 355:0 356:0 357:0 358:0 359:0 360:0 361:0 362:0 363:0 364:0 365:0 \r\n-0 -0 0 0 0 1.543552404144735 0 0 0 1:0 2:0 3:0 4:0 5:0 6:0 7:0 8:0 9:0 10:1 11:1 12:0 13:0 14:1 15:0 16:0 17:0 18:0 19:0 20:0 21:0 22:0 23:0 24:0 25:0 26:0 27:0 28:0 29:0 30:0 31:0 32:0 33:0 34:0 35:0 36:0 37:0 38:0 39:0 40:0 41:0 42:0 43:0 44:0 45:0 46:0 47:0 48:0 49:0 50:0 51:0 52:0 53:0 54:0 55:0 56:0 57:0 58:0 59:0 60:0 61:0 62:0 63:0 64:0 65:0 66:0 67:0 68:0 69:0 70:0 71:0 72:0 73:1 74:0 75:0 76:0 77:0 78:0 79:0 80:0 81:0 82:0 83:0 84:0 85:0 86:0 87:0 88:0 89:0 90:0 91:0 92:0 93:0 94:0 95:0 96:0 97:0 98:0 99:0 100:0 101:0 102:0 103:0 104:0 105:0 106:0 107:0 108:0 109:0 110:0 111:0 112:0 113:0 114:0 115:0 116:0 117:0 118:0 119:0 120:0 121:0 122:0 123:0 124:0 125:0 126:0 127:0 128:0 129:0 130:0 131:0 132:0 133:0 134:0 135:0 136:0 137:0 138:0 139:0 140:0 141:0 142:0 143:0 144:0 145:0 146:0 147:0 148:0 149:0 150:0 151:0 152:0 153:0 154:0 155:0 156:0 157:0 158:0 159:0 160:0 161:0 162:0 163:0 164:0 165:0 166:0 167:0 168:0 169:0 170:0 171:0 172:0 173:0 174:0 175:0 176:0 177:0 178:0 179:0 180:0 181:0 182:0 183:0 184:0 185:0 186:0 187:0 188:0 189:0 190:0 191:0 192:0 193:0 194:0 195:0 196:0 197:0 198:0 199:0 200:0 201:0 202:0 203:0 204:0 205:0 206:0 207:0 208:0 209:0 210:0 211:0 212:0 213:0 214:0 215:0 216:0 217:0 218:0 219:0 220:0 221:0 222:0 223:0 224:0 225:0 226:0 227:0 228:0 229:0 230:0 231:0 232:0 233:0 234:0 235:0 236:0 237:0 238:0 239:0 240:0 241:0 242:0 243:0 244:0 245:0 246:0 247:0 248:0 249:0 250:0 251:0 252:0 253:0 254:0 255:0 256:0 257:0 258:0 259:0 260:0 261:0 262:0 263:0 264:0 265:0 266:0 267:0 268:0 269:0 270:0 271:0 272:0 273:0 274:0 275:0 276:0 277:0 278:0 279:0 280:0 281:0 282:0 283:0 284:0 285:0 286:0 287:0 288:0 289:0 290:0 291:0 292:0 293:0 294:0 295:0 296:0 297:0 298:0 299:0 300:0 301:0 302:0 303:0 304:0 305:0 306:0 307:0 308:0 309:0 310:0 311:0 312:0 313:0 314:0 315:0 316:0 317:0 318:0 319:0 320:0 321:0 322:0 323:0 324:0 325:0 326:0 327:0 328:0 329:0 330:0 331:0 332:0 333:0 334:0 335:0 336:0 337:0 338:0 339:0 340:0 341:0 342:0 343:0 344:0 345:0 346:0 347:0 348:0 349:0 350:0 351:0 352:0 353:0 354:0 355:0 356:0 357:0 358:0 359:0 360:0 361:0 362:0 363:0 364:0 365:0 \r\n-45.4034097680546 -28.17251858344523 23.30015431350155 46.02921355549604 37.3385715330684 37.75644850533996 20.5535885407998 13.25843703458511 16.86734880394213 1:0 2:0 3:0 4:0 5:0 6:0 7:0 8:0 9:0 10:0 11:0 12:0 13:0 14:1 15:0 16:0 17:0 18:0 19:0 20:0 21:0 22:0 23:0 24:0 25:0 26:0 27:0 28:0 29:0 30:0 31:0 32:0 33:0 34:0 35:0 36:0 37:0 38:0 39:0 40:0 41:0 42:0 43:0 44:0 45:0 46:0 47:0 48:0 49:0 50:0 51:0 52:0 53:0 54:0 55:0 56:0 57:0 58:0 59:0 60:0 61:0 62:0 63:0 64:0 65:0 66:0 67:0 68:0 69:0 70:0 71:0 72:0 73:0 74:0 75:1 76:0 77:0 78:0 79:0 80:0 81:0 82:0 83:0 84:0 85:0 86:0 87:0 88:0 89:0 90:0 91:0 92:0 93:0 94:0 95:0 96:0 97:0 98:0 99:0 100:0 101:0 102:0 103:0 104:0 105:0 106:0 107:0 108:0 109:0 110:0 111:0 112:0 113:0 114:0 115:0 116:0 117:0 118:0 119:0 120:0 121:0 122:0 123:0 124:0 125:0 126:0 127:0 128:0 129:0 130:0 131:0 132:0 133:0 134:0 135:0 136:0 137:0 138:0 139:0 140:0 141:0 142:0 143:0 144:0 145:0 146:0 147:0 148:0 149:0 150:0 151:0 152:0 153:0 154:0 155:0 156:0 157:0 158:0 159:0 160:0 161:0 162:0 163:0 164:0 165:0 166:0 167:0 168:0 169:0 170:0 171:0 172:0 173:0 174:0 175:0 176:0 177:0 178:0 179:0 180:0 181:0 182:0 183:0 184:0 185:0 186:0 187:0 188:0 189:0 190:0 191:0 192:0 193:0 194:0 195:0 196:0 197:0 198:0 199:0 200:0 201:0 202:0 203:0 204:0 205:0 206:0 207:0 208:0 209:0 210:0 211:0 212:0 213:0 214:0 215:0 216:0 217:0 218:0 219:0 220:0 221:0 222:0 223:0 224:0 225:0 226:0 227:0 228:0 229:0 230:0 231:0 232:0 233:0 234:0 235:0 236:0 237:0 238:0 239:0 240:0 241:0 242:0 243:0 244:0 245:0 246:0 247:0 248:0 249:0 250:0 251:0 252:0 253:0 254:0 255:0 256:0 257:0 258:0 259:0 260:0 261:0 262:0 263:0 264:0 265:0 266:0 267:0 268:0 269:0 270:0 271:0 272:0 273:0 274:0 275:0 276:0 277:0 278:0 279:0 280:0 281:0 282:0 283:0 284:0 285:0 286:0 287:0 288:0 289:0 290:0 291:0 292:0 293:0 294:0 295:0 296:0 297:0 298:0 299:0 300:0 301:0 302:0 303:0 304:0 305:0 306:0 307:0 308:0 309:0 310:0 311:0 312:0 313:0 314:0 315:0 316:0 317:0 318:0 319:0 320:0 321:0 322:0 323:0 324:0 325:0 326:0 327:0 328:0 329:0 330:0 331:0 332:0 333:0 334:0 335:0 336:0 337:0 338:0 339:0 340:0 341:0 342:0 343:0 344:0 345:0 346:0 347:0 348:0 349:0 350:0 351:0 352:0 353:0 354:0 355:0 356:0 357:0 358:0 359:0 360:0 361:0 362:0 363:0 364:0 365:0 \r\n-17.07968616259861 -10.59868153345567 8.810975698126056 12.08389597243112 14.02091737186403 14.25286801544526 7.700063957884139 1.521326767176096 3.819452666292908 1:0 2:0 3:0 4:0 5:0 6:0 7:0 8:0 9:0 10:0 11:0 12:0 13:0 14:1 15:0 16:0 17:0 18:0 19:0 20:0 21:0 22:0 23:0 24:0 25:0 26:0 27:0 28:0 29:0 30:0 31:0 32:0 33:0 34:0 35:0 36:0 37:0 38:0 39:0 40:0 41:0 42:0 43:0 44:0 45:0 46:0 47:0 48:0 49:0 50:0 51:0 52:0 53:0 54:0 55:0 56:0 57:0 58:0 59:0 60:0 61:0 62:0 63:0 64:0 65:0 66:0 67:0 68:0 69:0 70:0 71:1 72:1 73:0 74:0 75:0 76:0 77:0 78:0 79:0 80:0 81:0 82:0 83:0 84:0 85:0 86:0 87:0 88:0 89:0 90:0 91:0 92:0 93:0 94:0 95:0 96:0 97:0 98:0 99:0 100:0 101:0 102:0 103:0 104:0 105:0 106:0 107:0 108:0 109:0 110:0 111:0 112:0 113:0 114:0 115:0 116:0 117:0 118:0 119:0 120:0 121:0 122:0 123:0 124:0 125:0 126:0 127:0 128:0 129:0 130:0 131:0 132:0 133:0 134:0 135:0 136:0 137:0 138:0 139:0 140:0 141:0 142:0 143:0 144:0 145:0 146:0 147:0 148:0 149:0 150:0 151:0 152:0 153:0 154:0 155:0 156:0 157:0 158:0 159:0 160:0 161:0 162:0 163:0 164:0 165:0 166:0 167:0 168:0 169:0 170:0 171:0 172:0 173:0 174:0 175:0 176:0 177:0 178:0 179:0 180:0 181:0 182:0 183:0 184:0 185:0 186:0 187:0 188:0 189:0 190:0 191:0 192:0 193:0 194:0 195:0 196:0 197:0 198:0 199:0 200:0 201:0 202:0 203:0 204:0 205:0 206:0 207:0 208:0 209:0 210:0 211:0 212:0 213:0 214:0 215:0 216:0 217:0 218:0 219:0 220:0 221:0 222:0 223:0 224:0 225:0 226:0 227:0 228:0 229:0 230:0 231:0 232:0 233:0 234:0 235:0 236:0 237:0 238:0 239:0 240:0 241:0 242:0 243:0 244:0 245:0 246:0 247:0 248:0 249:0 250:0 251:0 252:0 253:0 254:0 255:0 256:0 257:0 258:0 259:0 260:0 261:0 262:0 263:0 264:0 265:0 266:0 267:0 268:0 269:0 270:0 271:0 272:0 273:0 274:0 275:0 276:0 277:0 278:0 279:0 280:0 281:0 282:0 283:0 284:0 285:0 286:0 287:0 288:0 289:0 290:0 291:0 292:0 293:0 294:0 295:0 296:0 297:0 298:0 299:0 300:0 301:0 302:0 303:0 304:0 305:0 306:0 307:0 308:0 309:0 310:0 311:0 312:0 313:0 314:0 315:0 316:0 317:0 318:0 319:0 320:0 321:0 322:0 323:0 324:0 325:0 326:0 327:0 328:0 329:0 330:0 331:0 332:0 333:0 334:0 335:0 336:0 337:0 338:0 339:0 340:0 341:0 342:0 343:0 344:0 345:0 346:0 347:0 348:0 349:0 350:0 351:0 352:0 353:0 354:0 355:0 356:0 357:0 358:0 359:0 360:0 361:0 362:0 363:0 364:0 365:0 \r\n-45.39436537980989 -28.1725185834454 23.30015431350192 42.2528813288259 37.2864613599216 37.7379100091093 20.53810572511125 0 12.94171970994478 1:0 2:0 3:0 4:0 5:0 6:0 7:0 8:0 9:0 10:0 11:0 12:0 13:0 14:1 15:0 16:0 17:0 18:0 19:0 20:0 21:0 22:0 23:0 24:0 25:0 26:0 27:0 28:0 29:0 30:0 31:0 32:0 33:0 34:0 35:0 36:0 37:0 38:0 39:0 40:0 41:0 42:0 43:0 44:0 45:0 46:0 47:0 48:0 49:0 50:0 51:0 52:0 53:0 54:0 55:0 56:0 57:0 58:0 59:0 60:0 61:0 62:0 63:0 64:0 65:1 66:0 67:0 68:0 69:0 70:0 71:0 72:0 73:0 74:0 75:0 76:0 77:0 78:0 79:0 80:0 81:0 82:0 83:0 84:0 85:0 86:0 87:0 88:0 89:0 90:0 91:0 92:0 93:0 94:0 95:0 96:0 97:0 98:0 99:0 100:0 101:0 102:0 103:0 104:0 105:0 106:0 107:0 108:0 109:0 110:0 111:0 112:0 113:0 114:0 115:0 116:0 117:0 118:0 119:0 120:0 121:0 122:0 123:0 124:0 125:0 126:0 127:0 128:0 129:0 130:0 131:0 132:0 133:0 134:0 135:0 136:0 137:0 138:0 139:0 140:0 141:0 142:0 143:0 144:0 145:0 146:0 147:0 148:0 149:0 150:0 151:0 152:0 153:0 154:0 155:0 156:0 157:0 158:0 159:0 160:0 161:0 162:0 163:0 164:0 165:0 166:0 167:0 168:0 169:0 170:0 171:0 172:0 173:0 174:0 175:0 176:0 177:0 178:0 179:0 180:0 181:0 182:0 183:0 184:0 185:0 186:0 187:0 188:0 189:0 190:0 191:0 192:0 193:0 194:0 195:0 196:0 197:0 198:0 199:0 200:0 201:0 202:0 203:0 204:0 205:0 206:0 207:0 208:0 209:0 210:0 211:0 212:0 213:0 214:0 215:0 216:0 217:0 218:0 219:0 220:0 221:0 222:0 223:0 224:0 225:0 226:0 227:0 228:0 229:0 230:0 231:0 232:0 233:0 234:0 235:0 236:0 237:0 238:0 239:0 240:0 241:0 242:0 243:0 244:0 245:0 246:0 247:0 248:0 249:0 250:0 251:0 252:0 253:0 254:0 255:0 256:0 257:0 258:0 259:0 260:0 261:0 262:0 263:0 264:0 265:0 266:0 267:0 268:0 269:0 270:0 271:0 272:0 273:0 274:0 275:0 276:0 277:0 278:0 279:0 280:0 281:0 282:0 283:0 284:0 285:0 286:0 287:0 288:0 289:0 290:0 291:0 292:0 293:0 294:0 295:0 296:0 297:0 298:0 299:0 300:0 301:0 302:0 303:0 304:0 305:0 306:0 307:0 308:0 309:0 310:0 311:0 312:0 313:0 314:0 315:0 316:0 317:0 318:0 319:0 320:0 321:0 322:0 323:0 324:0 325:0 326:0 327:0 328:0 329:0 330:0 331:0 332:0 333:0 334:0 335:0 336:0 337:0 338:0 339:0 340:0 341:0 342:0 343:0 344:0 345:0 346:0 347:0 348:0 349:0 350:0 351:0 352:0 353:0 354:0 355:0 356:0 357:0 358:0 359:0 360:0 361:0 362:0 363:0 364:0 365:0 \r\n-45.04439248883821 -10.7162276693827 11.09389517362682 46.0415345250768 36.99778498906272 37.22175637868919 20.54024177957428 12.75278670203105 7.375445514359259 1:0 2:0 3:0 4:0 5:0 6:0 7:0 8:0 9:0 10:0 11:0 12:0 13:0 14:1 15:1 16:0 17:0 18:0 19:0 20:0 21:0 22:0 23:0 24:0 25:0 26:0 27:0 28:0 29:0 30:0 31:0 32:0 33:0 34:0 35:0 36:0 37:0 38:0 39:0 40:0 41:0 42:0 43:0 44:0 45:0 46:0 47:0 48:0 49:0 50:0 51:0 52:0 53:0 54:0 55:0 56:0 57:0 58:0 59:0 60:0 61:0 62:0 63:0 64:0 65:0 66:0 67:0 68:0 69:0 70:0 71:0 72:0 73:0 74:0 75:0 76:0 77:0 78:0 79:0 80:0 81:0 82:0 83:0 84:0 85:0 86:0 87:0 88:0 89:0 90:0 91:0 92:0 93:0 94:0 95:0 96:0 97:0 98:0 99:0 100:0 101:0 102:0 103:0 104:0 105:0 106:0 107:0 108:0 109:0 110:0 111:0 112:0 113:0 114:0 115:0 116:0 117:0 118:0 119:0 120:0 121:0 122:0 123:0 124:0 125:0 126:0 127:0 128:0 129:0 130:0 131:0 132:0 133:0 134:0 135:0 136:0 137:0 138:0 139:0 140:0 141:0 142:0 143:0 144:0 145:0 146:0 147:0 148:0 149:0 150:0 151:0 152:0 153:0 154:0 155:0 156:0 157:0 158:0 159:0 160:0 161:0 162:0 163:0 164:0 165:0 166:0 167:0 168:0 169:0 170:0 171:0 172:0 173:0 174:0 175:0 176:0 177:0 178:0 179:0 180:0 181:0 182:0 183:0 184:0 185:0 186:0 187:0 188:0 189:0 190:0 191:0 192:0 193:0 194:0 195:0 196:0 197:0 198:0 199:0 200:0 201:0 202:0 203:0 204:0 205:0 206:0 207:0 208:0 209:0 210:0 211:0 212:0 213:0 214:0 215:0 216:0 217:0 218:0 219:0 220:0 221:0 222:0 223:0 224:0 225:0 226:0 227:0 228:0 229:0 230:0 231:0 232:0 233:0 234:0 235:0 236:0 237:0 238:0 239:0 240:0 241:0 242:0 243:0 244:0 245:0 246:0 247:0 248:0 249:0 250:0 251:0 252:0 253:0 254:0 255:0 256:0 257:0 258:0 259:0 260:0 261:0 262:0 263:0 264:0 265:0 266:0 267:0 268:0 269:0 270:0 271:0 272:0 273:0 274:0 275:0 276:0 277:0 278:0 279:0 280:0 281:0 282:0 283:0 284:0 285:0 286:0 287:0 288:0 289:0 290:0 291:0 292:0 293:0 294:0 295:0 296:0 297:0 298:0 299:0 300:0 301:0 302:0 303:0 304:0 305:0 306:0 307:0 308:0 309:0 310:0 311:0 312:0 313:0 314:0 315:0 316:0 317:0 318:0 319:0 320:0 321:0 322:0 323:0 324:0 325:0 326:0 327:0 328:0 329:0 330:0 331:0 332:0 333:0 334:0 335:0 336:0 337:0 338:0 339:0 340:0 341:0 342:0 343:0 344:0 345:0 346:0 347:0 348:0 349:0 350:0 351:0 352:0 353:0 354:0 355:0 356:0 357:0 358:0 359:0 360:0 361:0 362:0 363:0 364:0 365:0 \r\n-0 -0 0 0 0.003601397105166725 42.23410490015298 0 43.38745466124319 2.503832115157973 1:0 2:1 3:0 4:0 5:0 6:0 7:0 8:0 9:1 10:1 11:1 12:1 13:1 14:0 15:0 16:0 17:0 18:0 19:0 20:0 21:0 22:0 23:0 24:0 25:0 26:0 27:0 28:0 29:0 30:0 31:0 32:0 33:0 34:0 35:0 36:0 37:0 38:0 39:0 40:0 41:0 42:0 43:0 44:0 45:0 46:0 47:0 48:0 49:0 50:0 51:0 52:0 53:0 54:0 55:0 56:0 57:0 58:0 59:0 60:0 61:0 62:0 63:0 64:0 65:0 66:0 67:0 68:0 69:0 70:0 71:0 72:0 73:0 74:0 75:0 76:0 77:0 78:0 79:0 80:0 81:0 82:0 83:0 84:0 85:0 86:0 87:0 88:0 89:0 90:0 91:0 92:0 93:0 94:0 95:0 96:0 97:0 98:0 99:0 100:0 101:0 102:0 103:0 104:0 105:0 106:0 107:0 108:0 109:0 110:0 111:0 112:0 113:0 114:0 115:0 116:0 117:0 118:0 119:0 120:0 121:0 122:0 123:0 124:0 125:0 126:0 127:0 128:0 129:0 130:0 131:0 132:0 133:0 134:0 135:0 136:0 137:0 138:0 139:0 140:0 141:0 142:0 143:0 144:0 145:0 146:0 147:0 148:0 149:0 150:0 151:0 152:0 153:0 154:0 155:0 156:0 157:0 158:0 159:0 160:0 161:0 162:0 163:0 164:0 165:0 166:0 167:0 168:0 169:0 170:0 171:0 172:0 173:0 174:0 175:0 176:0 177:0 178:0 179:0 180:0 181:0 182:0 183:0 184:0 185:0 186:0 187:0 188:0 189:0 190:0 191:0 192:0 193:0 194:0 195:0 196:0 197:0 198:0 199:0 200:0 201:0 202:0 203:0 204:0 205:0 206:0 207:0 208:0 209:0 210:0 211:0 212:0 213:0 214:0 215:0 216:0 217:0 218:0 219:0 220:0 221:0 222:0 223:0 224:0 225:0 226:0 227:0 228:0 229:0 230:0 231:0 232:0 233:0 234:0 235:0 236:0 237:0 238:0 239:0 240:0 241:0 242:0 243:0 244:0 245:0 246:0 247:0 248:0 249:0 250:0 251:0 252:0 253:0 254:0 255:0 256:0 257:0 258:0 259:0 260:0 261:0 262:0 263:0 264:0 265:0 266:0 267:0 268:0 269:0 270:0 271:0 272:0 273:0 274:0 275:0 276:0 277:0 278:0 279:0 280:0 281:0 282:0 283:0 284:0 285:0 286:0 287:0 288:0 289:0 290:0 291:0 292:0 293:0 294:0 295:0 296:0 297:0 298:0 299:0 300:0 301:0 302:0 303:0 304:0 305:0 306:0 307:0 308:0 309:0 310:0 311:0 312:0 313:0 314:0 315:0 316:0 317:0 318:0 319:0 320:0 321:0 322:0 323:0 324:0 325:0 326:0 327:0 328:0 329:0 330:0 331:0 332:0 333:0 334:0 335:0 336:0 337:0 338:0 339:0 340:0 341:0 342:0 343:0 344:0 345:0 346:0 347:0 348:0 349:0 350:0 351:0 352:0 353:0 354:0 355:0 356:0 357:0 358:0 359:0 360:0 361:0 362:0 363:0 364:0 365:0 \r\n-4.360920333408786 -5.029666280540736 5.53267374186008 3.171829961777775 3.425607065875832 5.282852415625271 8.102860295365954 0 2.423703663595455 1:0 2:1 3:0 4:0 5:0 6:0 7:1 8:0 9:0 10:0 11:1 12:0 13:0 14:0 15:0 16:0 17:0 18:0 19:0 20:0 21:0 22:0 23:0 24:0 25:0 26:0 27:0 28:0 29:0 30:2 31:0 32:0 33:0 34:0 35:0 36:0 37:0 38:0 39:0 40:0 41:0 42:0 43:0 44:0 45:0 46:0 47:0 48:0 49:0 50:0 51:0 52:0 53:0 54:0 55:0 56:0 57:0 58:0 59:0 60:0 61:0 62:0 63:0 64:0 65:0 66:0 67:0 68:0 69:0 70:0 71:0 72:0 73:0 74:0 75:0 76:0 77:0 78:0 79:0 80:0 81:0 82:0 83:0 84:0 85:0 86:0 87:0 88:0 89:0 90:0 91:0 92:0 93:0 94:0 95:0 96:0 97:0 98:0 99:0 100:0 101:0 102:0 103:0 104:0 105:0 106:0 107:0 108:0 109:0 110:0 111:0 112:0 113:0 114:0 115:0 116:0 117:1 118:0 119:0 120:0 121:0 122:0 123:0 124:0 125:0 126:0 127:0 128:0 129:0 130:0 131:0 132:0 133:0 134:0 135:0 136:0 137:0 138:0 139:0 140:0 141:0 142:0 143:0 144:0 145:0 146:0 147:0 148:1 149:0 150:0 151:0 152:0 153:1 154:0 155:1 156:0 157:0 158:0 159:0 160:0 161:0 162:0 163:2 164:0 165:0 166:0 167:0 168:0 169:0 170:0 171:0 172:0 173:0 174:0 175:1 176:0 177:0 178:0 179:0 180:0 181:0 182:0 183:0 184:0 185:0 186:0 187:0 188:0 189:0 190:0 191:0 192:0 193:0 194:1 195:0 196:0 197:0 198:0 199:1 200:1 201:1 202:1 203:1 204:1 205:1 206:1 207:1 208:1 209:1 210:2 211:2 212:1 213:1 214:1 215:1 216:1 217:1 218:1 219:0 220:0 221:0 222:0 223:0 224:0 225:0 226:0 227:0 228:0 229:0 230:0 231:0 232:0 233:0 234:0 235:0 236:0 237:0 238:0 239:0 240:0 241:0 242:0 243:0 244:0 245:0 246:0 247:0 248:0 249:0 250:0 251:0 252:0 253:0 254:0 255:0 256:0 257:0 258:0 259:0 260:0 261:0 262:0 263:0 264:0 265:0 266:0 267:0 268:0 269:0 270:0 271:0 272:0 273:0 274:0 275:0 276:0 277:0 278:0 279:0 280:0 281:0 282:0 283:0 284:0 285:0 286:0 287:0 288:0 289:0 290:0 291:0 292:0 293:0 294:0 295:0 296:0 297:0 298:0 299:0 300:0 301:0 302:0 303:0 304:0 305:0 306:0 307:0 308:0 309:0 310:0 311:0 312:0 313:0 314:0 315:0 316:0 317:0 318:0 319:0 320:0 321:0 322:0 323:0 324:0 325:0 326:0 327:0 328:0 329:0 330:0 331:0 332:0 333:0 334:0 335:0 336:0 337:0 338:0 339:0 340:0 341:0 342:0 343:0 344:0 345:0 346:0 347:0 348:0 349:0 350:0 351:0 352:0 353:0 354:0 355:0 356:0 357:0 358:0 359:0 360:0 361:0 362:0 363:0 364:0 365:0 \r\n-0.3361518865245598 -17.56794019603445 12.26963275071214 0 0.2773773396468982 0.5053000009529186 0 0.5438673997498269 9.594092750621089 1:0 2:0 3:0 4:0 5:0 6:0 7:0 8:0 9:0 10:0 11:0 12:0 13:0 14:1 15:1 16:0 17:0 18:0 19:0 20:0 21:0 22:0 23:0 24:0 25:0 26:0 27:0 28:0 29:0 30:0 31:0 32:0 33:0 34:0 35:0 36:0 37:0 38:0 39:0 40:0 41:0 42:0 43:0 44:0 45:0 46:0 47:0 48:0 49:0 50:0 51:0 52:0 53:0 54:0 55:0 56:0 57:0 58:1 59:0 60:0 61:0 62:0 63:0 64:0 65:0 66:0 67:0 68:0 69:0 70:0 71:0 72:0 73:0 74:0 75:0 76:0 77:1 78:0 79:0 80:0 81:0 82:0 83:0 84:0 85:0 86:0 87:0 88:0 89:0 90:0 91:0 92:0 93:0 94:0 95:0 96:0 97:0 98:0 99:0 100:0 101:0 102:0 103:0 104:0 105:0 106:0 107:0 108:0 109:0 110:0 111:0 112:0 113:0 114:0 115:0 116:0 117:0 118:0 119:0 120:0 121:0 122:0 123:0 124:0 125:0 126:0 127:0 128:0 129:0 130:0 131:0 132:0 133:0 134:0 135:0 136:0 137:0 138:0 139:0 140:0 141:0 142:0 143:0 144:0 145:0 146:0 147:0 148:0 149:0 150:0 151:0 152:0 153:0 154:0 155:0 156:0 157:0 158:0 159:0 160:0 161:0 162:0 163:0 164:0 165:0 166:0 167:0 168:0 169:0 170:0 171:0 172:0 173:0 174:0 175:0 176:0 177:0 178:0 179:0 180:0 181:0 182:0 183:0 184:0 185:0 186:0 187:0 188:0 189:0 190:0 191:0 192:0 193:0 194:0 195:0 196:0 197:0 198:0 199:0 200:0 201:0 202:0 203:0 204:0 205:0 206:0 207:0 208:0 209:0 210:0 211:0 212:0 213:0 214:0 215:0 216:0 217:0 218:0 219:0 220:0 221:0 222:0 223:0 224:0 225:0 226:0 227:0 228:0 229:0 230:0 231:0 232:0 233:0 234:0 235:0 236:0 237:0 238:0 239:0 240:0 241:0 242:0 243:0 244:0 245:0 246:0 247:0 248:0 249:0 250:0 251:0 252:0 253:0 254:0 255:0 256:0 257:0 258:0 259:0 260:0 261:0 262:0 263:0 264:0 265:0 266:0 267:0 268:0 269:0 270:0 271:0 272:0 273:0 274:0 275:0 276:0 277:0 278:0 279:0 280:0 281:0 282:0 283:0 284:0 285:0 286:0 287:0 288:0 289:0 290:0 291:0 292:0 293:0 294:0 295:0 296:0 297:0 298:0 299:0 300:0 301:0 302:0 303:0 304:0 305:0 306:0 307:0 308:0 309:0 310:0 311:0 312:0 313:0 314:0 315:0 316:0 317:0 318:0 319:0 320:0 321:0 322:0 323:0 324:0 325:0 326:0 327:0 328:0 329:0 330:0 331:0 332:0 333:0 334:0 335:0 336:0 337:0 338:0 339:0 340:0 341:0 342:0 343:0 344:0 345:0 346:0 347:0 348:0 349:0 350:0 351:0 352:0 353:0 354:0 355:0 356:0 357:0 358:0 359:0 360:0 361:0 362:0 363:0 364:0 365:0 \r\n-0 -0 0 0 0 0 0 4.661701778244978 0 1:0 2:0 3:0 4:0 5:0 6:0 7:0 8:0 9:1 10:0 11:1 12:0 13:1 14:0 15:0 16:0 17:0 18:0 19:0 20:0 21:0 22:0 23:0 24:0 25:0 26:0 27:0 28:0 29:0 30:0 31:0 32:0 33:0 34:0 35:0 36:0 37:0 38:0 39:0 40:0 41:0 42:0 43:0 44:0 45:0 46:0 47:0 48:0 49:0 50:0 51:0 52:0 53:0 54:0 55:0 56:0 57:0 58:0 59:0 60:0 61:0 62:0 63:0 64:1 65:0 66:0 67:0 68:0 69:0 70:1 71:0 72:0 73:0 74:0 75:0 76:0 77:0 78:0 79:0 80:0 81:0 82:0 83:0 84:0 85:0 86:0 87:0 88:0 89:0 90:0 91:0 92:0 93:0 94:0 95:0 96:0 97:0 98:0 99:0 100:0 101:0 102:0 103:0 104:0 105:0 106:0 107:0 108:0 109:0 110:0 111:0 112:0 113:0 114:0 115:0 116:0 117:0 118:0 119:0 120:0 121:0 122:0 123:0 124:0 125:0 126:0 127:0 128:0 129:0 130:0 131:0 132:0 133:0 134:0 135:0 136:0 137:0 138:0 139:0 140:0 141:0 142:0 143:0 144:0 145:0 146:0 147:0 148:0 149:0 150:0 151:0 152:0 153:0 154:0 155:0 156:0 157:0 158:0 159:0 160:0 161:0 162:0 163:0 164:0 165:0 166:0 167:0 168:0 169:0 170:0 171:0 172:0 173:0 174:0 175:0 176:0 177:0 178:0 179:0 180:0 181:0 182:0 183:0 184:0 185:0 186:0 187:0 188:0 189:0 190:0 191:0 192:0 193:0 194:0 195:0 196:0 197:0 198:0 199:0 200:0 201:0 202:0 203:0 204:0 205:0 206:0 207:0 208:0 209:0 210:0 211:0 212:0 213:0 214:0 215:0 216:0 217:0 218:0 219:0 220:0 221:0 222:0 223:0 224:0 225:0 226:0 227:0 228:0 229:0 230:0 231:0 232:0 233:0 234:0 235:0 236:0 237:0 238:0 239:0 240:0 241:0 242:0 243:0 244:0 245:0 246:0 247:0 248:0 249:0 250:0 251:0 252:0 253:0 254:0 255:0 256:0 257:0 258:0 259:0 260:0 261:0 262:0 263:0 264:0 265:0 266:0 267:0 268:0 269:0 270:0 271:0 272:0 273:0 274:0 275:0 276:0 277:0 278:0 279:0 280:0 281:0 282:0 283:0 284:0 285:0 286:0 287:0 288:0 289:0 290:0 291:0 292:0 293:0 294:0 295:0 296:0 297:0 298:0 299:0 300:0 301:0 302:0 303:0 304:0 305:0 306:0 307:0 308:0 309:0 310:0 311:0 312:0 313:0 314:0 315:0 316:0 317:0 318:0 319:0 320:0 321:0 322:0 323:0 324:0 325:0 326:0 327:0 328:0 329:0 330:0 331:0 332:0 333:0 334:0 335:0 336:0 337:0 338:0 339:0 340:0 341:0 342:0 343:0 344:0 345:0 346:0 347:0 348:0 349:0 350:0 351:0 352:0 353:0 354:0 355:0 356:0 357:0 358:0 359:0 360:0 361:0 362:0 363:0 364:0 365:0 \r\n-0 -0 0 0 0 0 0 4.676129988672282 0 1:0 2:0 3:0 4:0 5:0 6:0 7:0 8:0 9:1 10:0 11:1 12:0 13:1 14:0 15:0 16:0 17:0 18:0 19:0 20:0 21:0 22:0 23:0 24:0 25:0 26:0 27:0 28:0 29:0 30:0 31:0 32:0 33:0 34:0 35:0 36:0 37:0 38:0 39:0 40:0 41:0 42:0 43:0 44:0 45:0 46:0 47:0 48:0 49:0 50:0 51:0 52:0 53:0 54:0 55:0 56:0 57:0 58:0 59:0 60:0 61:0 62:0 63:0 64:1 65:0 66:0 67:1 68:0 69:0 70:0 71:0 72:0 73:0 74:0 75:0 76:0 77:0 78:0 79:0 80:0 81:0 82:0 83:0 84:0 85:0 86:0 87:0 88:0 89:0 90:0 91:0 92:0 93:0 94:0 95:0 96:0 97:0 98:0 99:0 100:0 101:0 102:0 103:0 104:0 105:0 106:0 107:0 108:0 109:0 110:0 111:0 112:0 113:0 114:0 115:0 116:0 117:0 118:0 119:0 120:0 121:0 122:0 123:0 124:0 125:0 126:0 127:0 128:0 129:0 130:0 131:0 132:0 133:0 134:0 135:0 136:0 137:0 138:0 139:0 140:0 141:0 142:0 143:0 144:0 145:0 146:0 147:0 148:0 149:0 150:0 151:0 152:0 153:0 154:0 155:0 156:0 157:0 158:0 159:0 160:0 161:0 162:0 163:0 164:0 165:0 166:0 167:0 168:0 169:0 170:0 171:0 172:0 173:0 174:0 175:0 176:0 177:0 178:0 179:0 180:0 181:0 182:0 183:0 184:0 185:0 186:0 187:0 188:0 189:0 190:0 191:0 192:0 193:0 194:0 195:0 196:0 197:0 198:0 199:0 200:0 201:0 202:0 203:0 204:0 205:0 206:0 207:0 208:0 209:0 210:0 211:0 212:0 213:0 214:0 215:0 216:0 217:0 218:0 219:0 220:0 221:0 222:0 223:0 224:0 225:0 226:0 227:0 228:0 229:0 230:0 231:0 232:0 233:0 234:0 235:0 236:0 237:0 238:0 239:0 240:0 241:0 242:0 243:0 244:0 245:0 246:0 247:0 248:0 249:0 250:0 251:0 252:0 253:0 254:0 255:0 256:0 257:0 258:0 259:0 260:0 261:0 262:0 263:0 264:0 265:0 266:0 267:0 268:0 269:0 270:0 271:0 272:0 273:0 274:0 275:0 276:0 277:0 278:0 279:0 280:0 281:0 282:0 283:0 284:0 285:0 286:0 287:0 288:0 289:0 290:0 291:0 292:0 293:0 294:0 295:0 296:0 297:0 298:0 299:0 300:0 301:0 302:0 303:0 304:0 305:0 306:0 307:0 308:0 309:0 310:0 311:0 312:0 313:0 314:0 315:0 316:0 317:0 318:0 319:0 320:0 321:0 322:0 323:0 324:0 325:0 326:0 327:0 328:0 329:0 330:0 331:0 332:0 333:0 334:0 335:0 336:0 337:0 338:0 339:0 340:0 341:0 342:0 343:0 344:0 345:0 346:0 347:0 348:0 349:0 350:0 351:0 352:0 353:0 354:0 355:0 356:0 357:0 358:0 359:0 360:0 361:0 362:0 363:0 364:0 365:0 \r\n-0.2013471828190942 -0.01662096066672528 -0 0 0 0 0 0 0 1:1 2:0 3:0 4:0 5:0 6:0 7:1 8:1 9:0 10:0 11:0 12:0 13:0 14:0 15:0 16:0 17:1 18:0 19:0 20:0 21:0 22:0 23:0 24:0 25:0 26:0 27:0 28:0 29:0 30:0 31:0 32:0 33:0 34:0 35:0 36:0 37:0 38:0 39:0 40:0 41:0 42:0 43:0 44:0 45:0 46:0 47:0 48:0 49:0 50:0 51:0 52:0 53:0 54:0 55:0 56:0 57:0 58:0 59:0 60:0 61:0 62:0 63:0 64:0 65:0 66:0 67:0 68:0 69:0 70:0 71:0 72:0 73:0 74:0 75:0 76:0 77:0 78:0 79:0 80:0 81:0 82:0 83:0 84:0 85:0 86:0 87:0 88:0 89:0 90:0 91:0 92:0 93:0 94:0 95:0 96:0 97:0 98:0 99:0 100:0 101:0 102:0 103:0 104:0 105:0 106:0 107:0 108:0 109:0 110:0 111:0 112:0 113:0 114:0 115:0 116:0 117:0 118:0 119:0 120:0 121:0 122:0 123:0 124:0 125:0 126:0 127:0 128:0 129:0 130:0 131:0 132:0 133:0 134:0 135:0 136:0 137:0 138:0 139:0 140:0 141:0 142:0 143:0 144:0 145:0 146:0 147:0 148:0 149:0 150:0 151:0 152:0 153:0 154:0 155:0 156:0 157:0 158:0 159:0 160:0 161:0 162:0 163:0 164:0 165:0 166:0 167:0 168:0 169:0 170:0 171:0 172:0 173:0 174:0 175:0 176:0 177:0 178:0 179:0 180:0 181:0 182:0 183:0 184:0 185:0 186:0 187:0 188:0 189:0 190:0 191:0 192:0 193:0 194:0 195:0 196:0 197:0 198:0 199:0 200:0 201:0 202:0 203:0 204:0 205:0 206:0 207:0 208:0 209:0 210:0 211:0 212:0 213:0 214:0 215:0 216:0 217:0 218:0 219:0 220:0 221:0 222:0 223:0 224:0 225:0 226:0 227:0 228:0 229:0 230:0 231:0 232:0 233:0 234:0 235:0 236:0 237:0 238:0 239:0 240:0 241:0 242:0 243:0 244:0 245:0 246:0 247:0 248:0 249:0 250:0 251:0 252:0 253:0 254:0 255:0 256:0 257:0 258:0 259:0 260:0 261:0 262:0 263:0 264:0 265:0 266:0 267:0 268:0 269:0 270:0 271:0 272:0 273:0 274:0 275:0 276:0 277:0 278:0 279:0 280:0 281:0 282:0 283:0 284:0 285:0 286:0 287:0 288:0 289:0 290:0 291:0 292:0 293:0 294:0 295:0 296:0 297:0 298:0 299:0 300:0 301:0 302:0 303:0 304:0 305:0 306:0 307:0 308:0 309:0 310:0 311:0 312:0 313:0 314:0 315:0 316:0 317:0 318:0 319:0 320:0 321:0 322:0 323:0 324:0 325:0 326:0 327:0 328:0 329:0 330:0 331:0 332:0 333:0 334:0 335:0 336:0 337:0 338:0 339:0 340:0 341:0 342:0 343:0 344:0 345:0 346:0 347:0 348:0 349:0 350:0 351:0 352:0 353:0 354:0 355:0 356:0 357:0 358:0 359:0 360:0 361:0 362:0 363:0 364:0 365:0 \r\n-18.46869502070699 -0 -24.23583901223432 22.43863859154595 19.30693831385035 0 9.535890908153808 8.21476742039833 16.19850963786431 1:1 2:0 3:0 4:0 5:0 6:0 7:0 8:0 9:0 10:0 11:0 12:0 13:0 14:0 15:0 16:1 17:1 18:0 19:0 20:0 21:0 22:0 23:0 24:0 25:0 26:0 27:0 28:0 29:0 30:0 31:0 32:0 33:0 34:0 35:0 36:0 37:0 38:0 39:0 40:0 41:0 42:0 43:0 44:0 45:0 46:0 47:0 48:0 49:0 50:0 51:0 52:0 53:0 54:0 55:0 56:1 57:1 58:1 59:0 60:0 61:0 62:0 63:0 64:0 65:0 66:0 67:0 68:0 69:0 70:0 71:0 72:0 73:0 74:0 75:0 76:0 77:0 78:0 79:0 80:0 81:0 82:0 83:0 84:0 85:0 86:0 87:0 88:0 89:0 90:0 91:0 92:0 93:0 94:0 95:0 96:0 97:0 98:0 99:0 100:0 101:0 102:0 103:0 104:0 105:0 106:0 107:0 108:0 109:0 110:0 111:0 112:0 113:0 114:0 115:0 116:0 117:0 118:0 119:0 120:0 121:0 122:0 123:0 124:0 125:0 126:0 127:0 128:0 129:0 130:0 131:0 132:0 133:0 134:0 135:0 136:0 137:0 138:0 139:0 140:0 141:0 142:0 143:0 144:0 145:0 146:0 147:0 148:0 149:0 150:0 151:0 152:0 153:0 154:0 155:0 156:0 157:0 158:0 159:0 160:0 161:0 162:0 163:0 164:0 165:0 166:0 167:0 168:0 169:0 170:0 171:0 172:0 173:0 174:0 175:0 176:0 177:0 178:0 179:0 180:0 181:0 182:0 183:0 184:0 185:0 186:0 187:0 188:0 189:0 190:0 191:0 192:0 193:0 194:0 195:0 196:0 197:0 198:0 199:0 200:0 201:0 202:0 203:0 204:0 205:0 206:0 207:0 208:0 209:0 210:0 211:0 212:0 213:0 214:0 215:0 216:0 217:0 218:0 219:0 220:0 221:0 222:0 223:0 224:0 225:0 226:0 227:0 228:0 229:0 230:0 231:0 232:0 233:0 234:0 235:0 236:0 237:0 238:0 239:0 240:0 241:0 242:0 243:0 244:0 245:0 246:0 247:0 248:0 249:0 250:0 251:0 252:0 253:0 254:0 255:0 256:0 257:0 258:0 259:0 260:0 261:0 262:0 263:0 264:0 265:0 266:0 267:0 268:0 269:0 270:0 271:0 272:0 273:0 274:0 275:0 276:0 277:0 278:0 279:0 280:0 281:0 282:0 283:0 284:0 285:0 286:0 287:0 288:0 289:0 290:0 291:0 292:0 293:0 294:0 295:0 296:0 297:0 298:0 299:0 300:0 301:0 302:0 303:0 304:0 305:0 306:0 307:0 308:0 309:0 310:0 311:0 312:0 313:0 314:0 315:0 316:0 317:0 318:0 319:0 320:0 321:0 322:0 323:0 324:0 325:0 326:0 327:0 328:0 329:0 330:0 331:0 332:0 333:0 334:0 335:0 336:0 337:0 338:0 339:0 340:0 341:0 342:0 343:0 344:0 345:0 346:0 347:0 348:0 349:0 350:0 351:0 352:0 353:0 354:0 355:0 356:0 357:0 358:0 359:0 360:0 361:0 362:0 363:0 364:0 365:0 \r\n-0 -0 -0.0535202340521312 0 0 0 0 0 0 1:1 2:0 3:0 4:0 5:0 6:0 7:0 8:1 9:0 10:0 11:0 12:0 13:0 14:0 15:0 16:1 17:1 18:0 19:0 20:0 21:0 22:0 23:0 24:0 25:0 26:0 27:0 28:0 29:0 30:0 31:0 32:0 33:0 34:0 35:0 36:0 37:0 38:0 39:0 40:0 41:0 42:0 43:0 44:0 45:0 46:0 47:0 48:0 49:1 50:0 51:0 52:0 53:0 54:0 55:0 56:0 57:0 58:0 59:0 60:0 61:0 62:0 63:0 64:0 65:0 66:0 67:0 68:0 69:0 70:0 71:0 72:0 73:0 74:0 75:0 76:0 77:0 78:0 79:0 80:0 81:0 82:0 83:0 84:0 85:0 86:0 87:0 88:0 89:0 90:0 91:0 92:0 93:0 94:0 95:0 96:0 97:0 98:0 99:0 100:0 101:0 102:0 103:0 104:0 105:0 106:0 107:0 108:0 109:0 110:0 111:0 112:0 113:0 114:0 115:0 116:0 117:0 118:0 119:0 120:0 121:0 122:0 123:0 124:0 125:0 126:0 127:0 128:0 129:0 130:0 131:0 132:0 133:0 134:0 135:0 136:0 137:0 138:0 139:0 140:0 141:0 142:0 143:0 144:0 145:0 146:0 147:0 148:0 149:0 150:0 151:0 152:0 153:0 154:0 155:0 156:0 157:0 158:0 159:0 160:0 161:0 162:0 163:0 164:0 165:0 166:0 167:0 168:0 169:0 170:0 171:0 172:0 173:0 174:0 175:0 176:0 177:0 178:0 179:0 180:0 181:0 182:0 183:0 184:0 185:0 186:0 187:0 188:0 189:0 190:0 191:0 192:0 193:0 194:0 195:0 196:0 197:0 198:0 199:0 200:0 201:0 202:0 203:0 204:0 205:0 206:0 207:0 208:0 209:0 210:0 211:0 212:0 213:0 214:0 215:0 216:0 217:0 218:0 219:0 220:0 221:0 222:0 223:0 224:0 225:0 226:0 227:0 228:0 229:0 230:0 231:0 232:0 233:0 234:0 235:0 236:0 237:0 238:0 239:0 240:0 241:0 242:0 243:0 244:0 245:0 246:0 247:0 248:0 249:0 250:0 251:0 252:0 253:0 254:0 255:0 256:0 257:0 258:0 259:0 260:0 261:0 262:0 263:0 264:0 265:0 266:0 267:0 268:0 269:0 270:0 271:0 272:0 273:0 274:0 275:0 276:0 277:0 278:0 279:0 280:0 281:0 282:0 283:0 284:0 285:0 286:0 287:0 288:0 289:0 290:0 291:0 292:0 293:0 294:0 295:0 296:0 297:0 298:0 299:0 300:0 301:0 302:0 303:0 304:0 305:0 306:0 307:0 308:0 309:0 310:0 311:0 312:0 313:0 314:0 315:0 316:0 317:0 318:0 319:0 320:0 321:0 322:0 323:0 324:0 325:0 326:0 327:0 328:0 329:0 330:0 331:0 332:0 333:0 334:0 335:0 336:0 337:0 338:0 339:0 340:0 341:0 342:0 343:0 344:0 345:0 346:0 347:0 348:0 349:0 350:0 351:0 352:0 353:0 354:0 355:0 356:0 357:0 358:0 359:0 360:0 361:0 362:0 363:0 364:0 365:0 \r\n-0 -0 -0.9729679007954538 0.07130763658571925 0.7164734706417422 1.181035259648269 1.797116423406854 0.2645495914555416 0.6757794232662786 1:0 2:0 3:1 4:0 5:0 6:1 7:2 8:0 9:0 10:0 11:1 12:0 13:0 14:0 15:0 16:0 17:0 18:0 19:0 20:0 21:0 22:0 23:1 24:0 25:0 26:0 27:1 28:0 29:0 30:3 31:0 32:0 33:0 34:0 35:0 36:0 37:0 38:0 39:0 40:0 41:0 42:0 43:0 44:0 45:0 46:0 47:0 48:0 49:0 50:0 51:0 52:0 53:0 54:0 55:0 56:0 57:0 58:0 59:0 60:0 61:0 62:0 63:0 64:0 65:0 66:0 67:0 68:0 69:0 70:0 71:0 72:0 73:0 74:0 75:0 76:0 77:0 78:0 79:0 80:0 81:0 82:0 83:0 84:0 85:0 86:0 87:0 88:0 89:1 90:0 91:0 92:0 93:0 94:0 95:0 96:0 97:0 98:0 99:0 100:0 101:0 102:1 103:0 104:0 105:0 106:0 107:0 108:0 109:0 110:0 111:0 112:0 113:0 114:0 115:0 116:0 117:0 118:0 119:0 120:0 121:0 122:0 123:0 124:0 125:0 126:0 127:0 128:0 129:0 130:0 131:0 132:0 133:0 134:0 135:0 136:0 137:0 138:0 139:0 140:0 141:0 142:0 143:0 144:0 145:0 146:0 147:0 148:1 149:0 150:0 151:0 152:0 153:2 154:0 155:0 156:0 157:0 158:0 159:0 160:0 161:0 162:0 163:0 164:0 165:0 166:0 167:0 168:0 169:0 170:0 171:0 172:0 173:0 174:0 175:0 176:0 177:0 178:0 179:0 180:0 181:0 182:0 183:0 184:0 185:1 186:0 187:0 188:0 189:0 190:0 191:0 192:0 193:0 194:0 195:0 